/* Generated by Edge Impulse
 *
 * Permission is hereby granted, free of charge, to any person obtaining a copy
 * of this software and associated documentation files (the "Software"), to deal
 * in the Software without restriction, including without limitation the rights
 * to use, copy, modify, merge, publish, distribute, sublicense, and/or sell
 * copies of the Software, and to permit persons to whom the Software is
 * furnished to do so, subject to the following conditions:
 *
 * The above copyright notice and this permission notice shall be included in
 * all copies or substantial portions of the Software.
 *
 * THE SOFTWARE IS PROVIDED "AS IS", WITHOUT WARRANTY OF ANY KIND, EXPRESS OR
 * IMPLIED, INCLUDING BUT NOT LIMITED TO THE WARRANTIES OF MERCHANTABILITY,
 * FITNESS FOR A PARTICULAR PURPOSE AND NONINFRINGEMENT. IN NO EVENT SHALL THE
 * AUTHORS OR COPYRIGHT HOLDERS BE LIABLE FOR ANY CLAIM, DAMAGES OR OTHER
 * LIABILITY, WHETHER IN AN ACTION OF CONTRACT, TORT OR OTHERWISE, ARISING FROM,
 * OUT OF OR IN CONNECTION WITH THE SOFTWARE OR THE USE OR OTHER DEALINGS IN THE
 * SOFTWARE.
 */
// Generated on: 10.04.2024 11:15:44

#include <stdio.h>
#include <stdlib.h>
#include "edge-impulse-sdk/tensorflow/lite/c/builtin_op_data.h"
#include "edge-impulse-sdk/tensorflow/lite/c/common.h"
#include "edge-impulse-sdk/tensorflow/lite/micro/micro_mutable_op_resolver.h"
#include "edge-impulse-sdk/porting/ei_classifier_porting.h"

#if EI_CLASSIFIER_PRINT_STATE
#if defined(__cplusplus) && EI_C_LINKAGE == 1
extern "C" {
    extern void ei_printf(const char *format, ...);
}
#else
extern void ei_printf(const char *format, ...);
#endif
#endif

#if defined __GNUC__
#define ALIGN(X) __attribute__((aligned(X)))
#elif defined _MSC_VER
#define ALIGN(X) __declspec(align(X))
#elif defined __TASKING__
#define ALIGN(X) __align(X)
#elif defined __ICCARM__
#define ALIGN(x) __attribute__((aligned(x)))
#endif

#ifndef EI_MAX_SCRATCH_BUFFER_COUNT
#ifndef CONFIG_IDF_TARGET_ESP32S3
#define EI_MAX_SCRATCH_BUFFER_COUNT 14
#else
#define EI_MAX_SCRATCH_BUFFER_COUNT 28
#endif // CONFIG_IDF_TARGET_ESP32S3
#endif // EI_MAX_SCRATCH_BUFFER_COUNT

#ifndef EI_MAX_OVERFLOW_BUFFER_COUNT
#define EI_MAX_OVERFLOW_BUFFER_COUNT 10
#endif // EI_MAX_OVERFLOW_BUFFER_COUNT

using namespace tflite;
using namespace tflite::ops;
using namespace tflite::ops::micro;

namespace {

#if defined(EI_CLASSIFIER_ALLOCATION_STATIC_HIMAX) || defined(EI_CLASSIFIER_ALLOCATION_STATIC_HIMAX_GNU)
constexpr int kTensorArenaSize = 242656;
#else
constexpr int kTensorArenaSize = 241632;
#endif

#if defined(EI_CLASSIFIER_ALLOCATION_STATIC)
uint8_t tensor_arena[kTensorArenaSize] ALIGN(16);
#elif defined(EI_CLASSIFIER_ALLOCATION_STATIC_HIMAX)
#pragma Bss(".tensor_arena")
uint8_t tensor_arena[kTensorArenaSize] ALIGN(16);
#pragma Bss()
#elif defined(EI_CLASSIFIER_ALLOCATION_STATIC_HIMAX_GNU)
uint8_t tensor_arena[kTensorArenaSize] ALIGN(16) __attribute__((section(".tensor_arena")));
#else
#define EI_CLASSIFIER_ALLOCATION_HEAP 1
uint8_t* tensor_arena = NULL;
#endif

static uint8_t* tensor_boundary;
static uint8_t* current_location;

template <int SZ, class T> struct TfArray {
  int sz; T elem[SZ];
};

enum used_operators_e {
  OP_CONV_2D, OP_DEPTHWISE_CONV_2D, OP_PAD, OP_ADD, OP_SOFTMAX,  OP_LAST
};

struct TensorInfo_t { // subset of TfLiteTensor used for initialization from constant memory
  TfLiteAllocationType allocation_type;
  TfLiteType type;
  void* data;
  TfLiteIntArray* dims;
  size_t bytes;
  TfLiteQuantization quantization;
};

typedef struct {
  TfLiteTensor tensor;
  int16_t index;
} TfLiteTensorWithIndex;

typedef struct {
  TfLiteEvalTensor tensor;
  int16_t index;
} TfLiteEvalTensorWithIndex;

TfLiteContext ctx{};
static const int MAX_TFL_TENSOR_COUNT = 4;
static TfLiteTensorWithIndex tflTensors[MAX_TFL_TENSOR_COUNT];
static const int MAX_TFL_EVAL_COUNT = 4;
static TfLiteEvalTensorWithIndex tflEvalTensors[MAX_TFL_EVAL_COUNT];
TfLiteRegistration registrations[OP_LAST];

namespace g0 {
const TfArray<4, int> tensor_dimension0 = { 4, { 1,96,96,3 } };
const TfArray<1, float> quant0_scale = { 1, { 0.0026758939493447542, } };
const TfArray<1, int> quant0_zero = { 1, { -128 } };
const TfLiteAffineQuantization quant0 = { (TfLiteFloatArray*)&quant0_scale, (TfLiteIntArray*)&quant0_zero, 0 };
const ALIGN(16) int32_t tensor_data1[4*2] = { 
  0, 0, 
  0, 1, 
  0, 1, 
  0, 0, 
};
const TfArray<2, int> tensor_dimension1 = { 2, { 4,2 } };
const ALIGN(8) int32_t tensor_data2[3] = { 26134, -32030, -33852, };
const TfArray<1, int> tensor_dimension2 = { 1, { 3 } };
const TfArray<3, float> quant2_scale = { 3, { 0.00018918223213404417, 0.00017140105774160475, 0.00016931802383624017, } };
const TfArray<3, int> quant2_zero = { 3, { 0,0,0 } };
const TfLiteAffineQuantization quant2 = { (TfLiteFloatArray*)&quant2_scale, (TfLiteIntArray*)&quant2_zero, 0 };
const ALIGN(16) int8_t tensor_data3[3*1*1*32] = { 
  /* [0][0][][] */ 81,64,119,-96,-71,-2,-11,17,-13,57,23,-7,-29,-85,81,29,-64,65,84,97,-19,-14,21,-77,-101,127,-58,3,100,22,-12,-10, 
  /* [1][0][][] */ 59,-38,-68,24,-11,127,-21,-7,118,-48,-7,-94,-65,103,36,-50,91,-45,-24,-93,-111,11,123,71,16,6,4,-12,-80,-51,-5,-24, 
  /* [2][0][][] */ -38,79,-78,81,86,-39,-43,116,93,21,127,-21,-97,-85,87,116,-81,-56,-8,-113,68,108,-50,-92,86,-71,-15,-116,9,-74,87,-21, 
};
const TfArray<4, int> tensor_dimension3 = { 4, { 3,1,1,32 } };
const TfArray<3, float> quant3_scale = { 3, { 0.0036537414416670799, 0.0033103276509791613, 0.0032700973097234964, } };
const TfArray<3, int> quant3_zero = { 3, { 0,0,0 } };
const TfLiteAffineQuantization quant3 = { (TfLiteFloatArray*)&quant3_scale, (TfLiteIntArray*)&quant3_zero, 0 };
const ALIGN(16) int32_t tensor_data4[32] = { 254, 201, -64, 146, 220, 58, 106, 193, 129, -42, 191, 976, -266, -5, -80, -60, -92, -243, 1141, -374, -316, -695, 136, -123, -387, 1153, -406, -378, 944, -241, 122, -299, };
const TfArray<1, int> tensor_dimension4 = { 1, { 32 } };
const TfArray<32, float> quant4_scale = { 32, { 4.0295577491633594e-05, 4.1414255974814296e-05, 4.4669719500234351e-05, 4.8033543862402439e-05, 4.1782510379562154e-05, 4.4808322854805738e-05, 4.3202791857765988e-05, 4.4029766286257654e-05, 4.2472653149161488e-05, 4.666827226174064e-05, 4.4692904339171946e-05, 5.6697663239901885e-05, 4.9174297600984573e-05, 4.1509283619234338e-05, 4.7798188461456448e-05, 4.4904936657985672e-05, 4.1735562263056636e-05, 4.5705222873948514e-05, 5.8030404034070671e-05, 4.0704861021367833e-05, 3.9790826122043654e-05, 4.5837659854441881e-05, 4.943760359310545e-05, 4.1322669858345762e-05, 4.2441210098331794e-05, 4.690570494858548e-05, 4.8718164180172607e-05, 4.3012238165829331e-05, 4.1818268073257059e-05, 4.6461926103802398e-05, 4.123523467569612e-05, 4.2018349631689489e-05, } };
const TfArray<32, int> quant4_zero = { 32, { 0,0,0,0,0,0,0,0,0,0,0,0,0,0,0,0,0,0,0,0,0,0,0,0,0,0,0,0,0,0,0,0 } };
const TfLiteAffineQuantization quant4 = { (TfLiteFloatArray*)&quant4_scale, (TfLiteIntArray*)&quant4_zero, 0 };
const ALIGN(16) int8_t tensor_data5[32*1*1*96] = { 
  /* [0][0][][] */ -35,-56,116,14,104,-13,-88,-112,73,-115,-113,-7,31,4,-35,63,-56,-26,-69,-62,-77,-104,9,119,-115,-3,87,-45,114,0,-16,-83,96,-58,-92,62,-121,-83,-102,36,83,-87,-101,102,58,-120,115,-18,25,-60,-66,106,-74,-43,-102,106,39,76,127,-111,-100,78,-56,64,-6,17,82,107,57,108,98,-122,104,-106,41,95,-111,19,-59,40,62,-5,92,-2,-59,-40,-89,111,33,127,-7,-117,-1,78,29,28, 
  /* [1][0][][] */ -56,40,-72,-3,-33,89,43,17,78,-106,-104,121,92,-27,31,65,118,-46,32,126,-56,-1,41,34,42,28,-43,100,12,1,101,-68,60,111,-7,35,59,67,-8,-62,-63,6,-19,-95,-31,40,-28,-55,-26,-90,124,57,3,89,-77,-47,16,94,69,89,-72,124,-62,-86,-54,38,84,50,116,30,7,6,-122,102,-48,53,89,-44,-39,78,-83,94,-55,-119,31,127,-70,-68,78,84,102,20,89,98,26,-5, 
  /* [2][0][][] */ 36,31,-51,88,-14,-62,82,84,-98,101,-40,127,115,-3,77,-111,-55,-29,28,46,-93,-14,109,18,-29,71,99,22,-59,68,75,83,-67,-26,-75,-110,-63,85,94,-33,-118,-78,8,-9,-86,108,-31,-74,95,35,115,-91,-48,53,17,15,-72,86,-38,0,-3,95,-43,56,78,38,47,75,-99,58,13,-68,46,-77,29,29,-60,-20,1,6,30,-58,7,-48,-3,-100,-20,-38,84,104,-31,-2,-30,-88,-50,-71, 
  /* [3][0][][] */ 76,6,30,-18,-61,55,-96,43,42,-5,66,-14,63,84,73,2,100,94,-45,21,102,-76,-55,-96,-15,-91,-76,79,27,-84,75,17,-46,-22,-11,-6,-94,-13,45,52,-13,-79,-80,8,75,32,-33,-75,63,-82,16,10,83,37,88,-82,-98,-109,-104,-47,-97,6,-22,74,63,-23,-53,-20,-17,-58,-13,88,2,-87,61,-47,37,92,91,-54,-74,-127,15,92,31,50,-38,-97,-73,46,6,-91,86,-74,-76,45, 
  /* [4][0][][] */ 65,114,-8,52,-29,-13,40,25,58,62,2,57,25,-36,-5,-63,-15,3,-68,26,115,-89,92,36,-14,9,71,-87,-46,50,-68,-43,75,127,14,-94,-60,4,-107,62,-41,-57,-65,-85,44,117,47,59,26,-36,-38,-68,-96,57,-79,29,42,-94,30,24,3,-114,-25,-59,-35,67,6,-25,43,-95,-111,-85,-69,30,113,56,76,-19,1,-56,17,-62,-110,-8,9,83,100,15,-113,-69,58,54,38,116,-93,-13, 
  /* [5][0][][] */ 98,-88,68,81,11,-120,28,53,106,-127,0,-74,-6,90,34,38,59,63,-66,94,36,49,16,-24,-103,-69,-16,-87,47,34,17,-89,-41,7,-82,15,-122,-30,46,24,-80,-45,40,94,-30,25,38,-48,-102,107,-5,38,42,22,37,-23,111,53,-66,-37,28,-90,38,-63,-24,100,-27,30,72,3,105,-63,-50,66,-28,-72,13,-49,13,76,107,13,20,107,-75,81,-5,42,71,-90,116,91,-25,29,73,-76, 
  /* [6][0][][] */ 14,-40,127,78,-62,-65,1,66,-13,-43,7,-79,125,75,119,-116,51,3,-1,95,-73,-110,122,62,-60,-83,-5,-35,-17,-118,51,-80,-87,-119,-27,-101,16,38,-110,79,85,59,26,-10,-112,104,-91,-38,-78,13,8,-68,61,-56,93,-27,7,-6,-59,118,-92,45,62,-73,-51,65,108,-50,73,-2,-92,9,68,-70,-59,-30,-83,-83,-54,-24,32,3,60,-30,-69,-86,-33,-98,86,93,97,12,-41,-68,73,-23, 
  /* [7][0][][] */ 121,74,-42,-42,-72,118,-14,7,112,-23,-88,19,52,-86,50,74,57,20,-6,118,54,37,-3,90,-64,108,43,35,-75,111,-19,42,24,30,62,105,-110,91,-2,-19,99,-71,91,72,56,2,107,-108,52,-51,-127,-62,-32,91,23,35,113,-88,7,-51,-1,-41,86,-106,-59,-47,69,32,-96,27,50,81,70,31,63,59,-54,55,-91,47,97,-49,-29,-63,91,41,-103,100,84,10,94,67,-52,-30,0,-59, 
  /* [8][0][][] */ 21,37,-57,-91,36,32,-71,-16,10,13,51,90,-24,-48,-82,-70,-65,102,-61,25,39,-24,82,116,-118,100,48,65,-66,29,-90,127,93,-25,38,2,102,11,-12,79,89,110,-107,-115,-4,-24,-15,111,21,-81,-95,8,-60,0,-25,-104,56,117,-102,110,107,8,53,119,-21,-39,-22,109,-76,58,36,1,68,73,16,19,-39,106,88,72,44,52,-121,-78,31,50,78,-33,46,-32,-76,109,-84,-91,-41,68, 
  /* [9][0][][] */ -1,7,105,42,90,-83,-46,-111,38,63,-9,65,4,-56,-95,-25,8,-1,-94,-58,11,91,-100,-97,103,8,-12,23,-6,-57,-83,92,50,-2,24,-17,-63,15,-34,-43,44,-59,50,-84,73,21,-96,50,45,20,-47,-47,66,-71,-65,107,75,-54,5,-5,-61,122,79,-73,-66,4,96,41,-40,94,102,-68,30,80,-80,-89,-74,-109,-38,97,29,47,120,25,-42,-90,35,-15,93,28,-30,99,127,-4,56,-34, 
  /* [10][0][][] */ -54,86,84,-65,-19,107,109,34,36,-3,29,-64,89,78,-28,14,-28,81,-97,-54,-16,31,56,-61,34,60,-110,-127,-45,83,-91,-72,82,102,111,77,-47,12,-25,41,-28,115,-100,-31,-87,-51,3,-57,-2,5,14,15,55,26,-56,-29,-97,-15,32,-39,-14,41,116,44,121,-66,-91,-13,31,-14,-104,-65,70,69,-75,105,-7,63,70,23,82,-15,42,108,-92,74,101,-15,39,13,4,-63,-50,-38,-41,-59, 
  /* [11][0][][] */ 97,30,15,94,127,62,60,50,96,112,-37,98,22,-47,46,-34,-24,-66,73,47,32,77,40,-61,-48,-53,2,71,74,-1,34,-4,-50,-40,60,54,-17,74,4,-29,-5,94,-42,27,-12,-25,-55,-46,76,79,116,46,-48,-60,39,39,-39,-41,-1,-51,-44,99,77,8,28,82,-22,35,72,56,-52,-44,59,106,-59,62,-33,51,-15,84,-69,18,-42,-21,51,-45,24,-8,-65,11,24,-63,-52,-24,-41,-25, 
  /* [12][0][][] */ 4,52,-51,-5,92,-1,-37,22,-71,63,-20,21,-12,11,35,-73,-93,-34,-46,-78,17,-14,10,78,-63,-51,83,-77,82,5,-35,94,-80,-69,-40,6,1,-73,-23,30,93,29,-103,-41,-26,-79,-42,98,-44,-105,-43,84,28,-7,-79,67,-22,-56,48,53,55,127,-13,42,89,22,-45,94,42,83,36,64,75,93,-21,-9,-38,26,-108,-88,-58,115,47,5,-38,21,42,92,-88,-102,72,31,91,-21,18,62, 
  /* [13][0][][] */ 122,-62,99,101,78,115,85,62,80,-123,14,-47,66,72,69,-47,-123,-66,-68,34,77,-31,121,-49,-70,30,5,23,-100,-88,87,46,46,115,-32,37,-105,-24,23,73,-59,85,-56,13,-42,31,5,-31,41,94,-61,-97,-95,40,108,-86,-34,35,-37,-77,-22,97,-79,22,-53,-62,-99,90,-39,-13,107,3,-102,33,-72,-48,-106,67,84,-66,59,-122,90,25,-82,-102,95,127,-5,-48,-75,64,109,-51,75,-3, 
  /* [14][0][][] */ -53,-98,69,62,56,-24,-14,-106,-71,-55,62,58,-28,-86,-83,-80,-49,-53,14,24,-53,28,-10,55,-103,-67,-28,27,-113,-111,-92,36,92,-21,-31,-12,71,106,34,-100,-5,-108,30,71,59,-107,60,-78,101,25,58,49,89,-14,-14,12,-49,0,46,82,-31,-95,-23,63,-80,-10,67,-98,-79,-82,-94,75,-12,74,46,-72,52,-104,48,16,40,-32,-127,-36,-108,-81,-116,96,90,9,83,-54,64,94,-12,44, 
  /* [15][0][][] */ 14,-27,-34,68,97,-76,61,-92,54,-2,-67,21,127,-4,-83,-109,89,11,-89,29,41,20,67,108,80,74,41,82,24,53,60,-98,4,4,-56,-7,-65,108,103,-61,15,103,-45,-30,27,-79,-41,-80,-11,-74,7,26,-98,-102,-44,-2,56,45,-38,105,-53,-72,6,99,-31,94,-66,7,-49,7,53,-75,8,-8,59,-103,0,51,104,73,-76,58,-102,-60,-115,-30,-90,37,80,65,-98,-39,54,112,-106,106, 
  /* [16][0][][] */ -66,-2,100,-59,25,110,-54,37,58,40,-109,63,-40,-49,-56,-57,110,89,80,67,124,81,-41,54,-39,47,-68,72,-103,23,46,21,-106,85,50,58,-46,60,-52,-70,29,-41,76,92,65,109,111,-11,-55,-107,-16,126,-34,127,71,44,41,102,62,15,127,90,32,72,55,20,-39,94,43,105,-22,-2,31,88,64,87,-8,99,-111,-15,20,-105,57,18,16,104,107,17,88,20,-13,124,66,-28,-79,30, 
  /* [17][0][][] */ 30,-109,33,77,-8,-112,-66,-94,35,-85,78,47,127,59,-113,42,20,45,99,103,-93,-16,7,-54,24,65,-77,17,92,-55,-38,67,-30,-25,41,2,-55,91,-84,-30,-95,-43,-20,-15,3,9,77,-110,78,92,24,18,-27,71,88,-72,-120,73,-70,-113,37,-90,67,86,-87,-75,38,-95,-112,-10,89,27,24,-110,-71,63,107,-53,38,-58,3,19,-60,-89,-113,63,72,-37,11,68,-94,-115,-8,79,8,9, 
  /* [18][0][][] */ -76,92,122,-26,28,-75,-57,43,11,102,-65,-10,-3,36,79,-30,36,-17,72,-30,75,-5,45,-31,58,-65,6,111,42,19,19,28,37,-23,-53,-66,21,24,9,51,-30,12,-16,24,-73,26,14,31,25,-21,73,18,-54,-20,28,78,-38,24,13,-71,62,127,-9,23,-64,-76,6,66,36,-40,-39,88,-38,-14,-67,-43,37,76,16,-34,-39,29,-7,-49,90,-20,63,47,-80,-47,-38,73,69,-45,39,-6, 
  /* [19][0][][] */ 16,27,75,36,77,-93,96,93,92,-62,26,-13,-82,29,-62,58,73,-115,112,57,-28,79,-63,10,76,-86,25,-77,-98,-127,-74,45,78,-91,32,-4,7,-76,-61,-110,43,-126,-90,8,-94,28,77,-101,-36,38,-30,44,-39,11,3,-14,21,96,14,-33,57,-52,101,57,-75,-6,-33,-7,-12,53,74,-57,-69,-127,-60,-88,-28,-122,10,106,56,-115,-34,77,-95,-12,3,-8,89,27,-9,63,-35,115,71,-52, 
  /* [20][0][][] */ -21,74,76,99,-69,106,14,65,11,20,-98,16,24,88,38,-83,-57,-50,-73,-44,15,-51,-84,-82,83,-76,-117,46,29,10,-46,114,107,41,-7,61,54,-43,-15,-121,-99,-46,-95,-112,-36,-73,-84,110,59,-127,-90,33,47,112,49,-6,90,76,117,93,104,-26,-76,-42,-29,-77,-56,12,-91,-80,-76,74,-66,-89,33,21,114,83,113,119,85,28,97,-32,58,117,-18,73,14,96,26,63,23,24,-10,10, 
  /* [21][0][][] */ 74,53,50,-112,73,-85,52,-3,-18,-78,-85,22,-12,18,-65,-102,-114,-45,7,-19,82,-63,49,-95,36,-96,-48,51,-4,-8,-24,-33,-10,2,-101,-125,85,74,-127,-48,-24,-11,8,-31,-107,-96,-90,69,-38,-82,-20,65,15,50,-104,10,-66,30,-61,94,34,-88,-2,-27,60,11,-51,-81,-113,-21,37,54,12,-32,49,45,-123,-46,41,81,-5,75,13,-85,6,-108,42,-96,-116,55,83,-117,-60,-79,45,-43, 
  /* [22][0][][] */ 39,-43,-73,-87,64,-49,95,48,-94,74,-60,-127,85,-90,-94,-86,34,79,-112,-47,86,-69,30,31,74,-3,-111,67,-66,-83,-60,-87,45,63,12,13,-6,-5,-54,-104,10,-6,-2,92,54,-95,88,-17,-47,-100,9,-4,-81,-68,-34,36,-1,-38,-25,-31,111,-75,-59,-122,-46,22,-110,-55,97,85,-49,3,-61,13,71,-99,36,-42,51,80,94,-84,-66,-104,71,78,82,-23,-46,36,-75,59,29,19,-18,80, 
  /* [23][0][][] */ 62,-97,-1,59,94,-127,2,-113,62,-101,85,68,6,-118,12,-38,87,-36,-111,95,94,-86,105,-43,-15,-24,85,20,68,52,76,-40,-39,45,13,29,91,-12,-113,6,-114,-3,9,-122,-78,-95,112,23,81,-116,-112,-55,87,-61,-63,83,-82,-15,96,48,-127,-118,-64,-7,26,37,-123,-112,60,-15,121,-79,-8,-44,-49,-100,47,-27,97,124,-56,-72,19,-107,97,4,118,-22,-95,43,105,-6,99,-57,-34,93, 
  /* [24][0][][] */ -86,-59,-114,-77,-92,-116,-78,-102,60,111,75,38,109,54,-49,-127,-92,35,19,-54,89,-90,-65,-46,45,-36,66,50,100,55,-5,-69,-2,1,46,20,-63,-95,58,-30,-84,-110,96,-5,14,-46,36,65,-93,-54,-28,11,63,53,64,-82,-13,70,20,-8,84,-14,34,87,-102,90,-56,-98,-110,44,-67,-36,-48,35,87,94,58,-86,-114,-92,-89,-104,-73,-126,-7,55,-22,-109,18,-117,-1,-81,-26,21,-101,23, 
  /* [25][0][][] */ -77,-39,-24,28,117,-46,-72,83,65,-52,-19,36,61,12,-69,-5,-47,69,42,-100,71,110,18,-27,47,-48,-78,77,84,-84,55,109,99,-89,90,75,127,-48,7,-8,-67,108,-81,26,102,49,62,61,-79,92,-56,14,70,-14,-29,15,4,54,-64,87,109,90,43,53,-1,81,16,0,-86,9,-1,-85,65,-99,85,52,70,99,32,39,54,73,-33,78,-53,-33,-81,-82,-11,-24,107,21,-105,-5,-20,-39, 
  /* [26][0][][] */ 46,-110,-30,-19,-91,-5,-16,-19,-100,-127,89,62,-80,-45,3,-18,93,24,-76,-61,10,55,80,5,40,51,5,29,0,9,-86,-3,-27,-57,-93,-96,-72,72,-50,92,-90,85,43,22,-68,60,-39,83,-24,20,9,88,3,-43,-8,-98,89,59,41,17,13,-102,54,-16,97,-23,-58,46,-81,63,71,83,64,-88,-78,-3,38,-103,-91,1,-30,63,68,-68,64,-5,-46,9,-76,97,1,19,-48,94,45,74, 
  /* [27][0][][] */ 5,2,-68,-104,-122,-77,-75,-23,49,97,30,-79,-1,51,75,-32,59,-20,69,-89,-94,5,-35,-30,-111,39,-109,19,63,23,-35,-16,56,61,-95,-92,-94,-71,-118,81,-101,11,22,10,91,19,61,97,84,85,81,-80,-93,-92,-12,-39,95,-22,-100,-85,-53,-54,-41,52,32,-52,-117,98,42,7,-106,4,60,-59,-16,-92,40,-73,81,99,79,-28,127,-62,-79,-89,-36,25,-51,-9,-41,-55,52,13,82,52, 
  /* [28][0][][] */ 92,12,125,68,-77,-63,-78,-46,-22,-45,80,92,-36,-71,21,127,107,118,-10,62,-24,50,-89,-55,-79,97,-68,-40,-50,-85,15,-22,-109,18,101,84,59,-111,-15,47,108,61,-76,68,-104,10,15,77,31,-59,-47,-49,-30,13,60,47,50,0,117,72,-1,11,-106,9,46,93,6,102,-99,44,-82,-30,116,44,-17,-68,-102,-41,-64,62,-68,-43,122,-15,79,-108,86,-76,-106,-62,-2,-71,-40,42,-103,-60, 
  /* [29][0][][] */ 41,46,60,-48,-68,6,-113,3,89,10,-87,-80,127,-96,-48,-45,-96,88,23,-67,-76,-33,50,0,-33,1,-44,-14,-95,-14,95,-9,46,-5,-72,-54,4,88,-13,80,38,93,-45,73,-5,93,-56,-24,15,-14,81,-93,65,-98,98,39,-92,47,-40,95,-106,125,-95,-57,-63,-64,47,75,80,-81,31,-70,112,66,50,25,99,-57,-32,33,-12,-48,-2,-77,54,100,38,65,-42,84,58,69,-98,8,-5,52, 
  /* [30][0][][] */ 35,-65,-77,38,-119,25,-63,-8,120,-34,4,-83,-109,9,65,-7,-1,41,96,-102,43,-102,-117,18,-112,27,-69,88,-37,-127,-91,12,-90,-68,-124,-53,0,-12,2,31,98,-74,-7,109,113,-39,112,69,-74,68,-20,-102,98,-48,-6,111,-80,-69,-83,-55,-120,-33,-70,-28,-107,-84,-97,99,-57,119,49,-56,-101,115,44,-106,-58,-74,-75,-77,35,-2,-126,-17,-107,36,-113,116,-37,-115,84,60,-37,2,13,-70, 
  /* [31][0][][] */ 80,-97,52,103,59,62,-64,-102,-31,-10,-85,-83,115,-127,-52,112,-65,-96,50,47,63,34,-33,105,44,-120,36,87,-73,-77,48,107,18,18,-96,-6,103,-35,-70,-117,58,-74,-33,30,2,-59,-44,22,71,30,109,-35,-75,-63,-86,22,-122,69,5,114,-42,16,85,-78,69,111,-48,-82,72,-123,-121,9,-99,-46,2,12,-63,-50,48,101,-81,-32,58,72,55,95,-99,14,17,-57,-89,-59,10,104,-8,-25, 
};
const TfArray<4, int> tensor_dimension5 = { 4, { 32,1,1,96 } };
const TfArray<32, float> quant5_scale = { 32, { 0.0017125620506703854, 0.0017601058352738619, 0.0018984630005434155, 0.0020414255559444427, 0.001775756711140275, 0.0019043537322431803, 0.0018361186375841498, 0.0018712650053203106, 0.0018050877843052149, 0.0019834015984088182, 0.0018994484562426805, 0.0024096507113426924, 0.0020899076480418444, 0.0017641445156186819, 0.0020314229186624289, 0.0019084597006440163, 0.0017737613525241613, 0.001942471950314939, 0.0024662921205163002, 0.0017299565952271223, 0.0016911100829020143, 0.0019481005147099495, 0.0021010981872677803, 0.0017562134889885783, 0.0018037514528259635, 0.001993492478504777, 0.0020705219358205795, 0.0018280200893059373, 0.0017772763967514038, 0.0019746317993849516, 0.0017524973955005407, 0.0017857798375189304, } };
const TfArray<32, int> quant5_zero = { 32, { 0,0,0,0,0,0,0,0,0,0,0,0,0,0,0,0,0,0,0,0,0,0,0,0,0,0,0,0,0,0,0,0 } };
const TfLiteAffineQuantization quant5 = { (TfLiteFloatArray*)&quant5_scale, (TfLiteIntArray*)&quant5_zero, 0 };
const ALIGN(16) int32_t tensor_data6[96] = { -1709, 3282, 7546, 2410, -2758, -3692, 16017, 2069, 2068, -1340, 9034, -138, -7604, 2033, 13578, 6182, 11445, 4913, -4255, -4532, 3921, 23918, 19342, 11504, 892, 787, 3835, 2813, 1685, -3826, 5226, -2113, -222, 4403, 47, 984, 7922, 4314, -1628, 4403, 8625, 4790, 4246, 10048, 3721, 3664, 1668, 6230, 3512, -4219, -6663, 384, -286, -1135, 1534, -32, 210, -933, -3474, 8426, -845, 1418, -1276, -1444, -3493, 6620, 16486, 1525, -2373, 703, 1321, 1679, 1768, -998, 495, 8605, -466, 16394, 12549, -703, 9863, 2293, -403, 1130, 13823, 9542, 4357, 1419, 5002, 3565, -273, -6053, 518, -2384, -1601, -1858, };
const TfArray<1, int> tensor_dimension6 = { 1, { 96 } };
const TfArray<96, float> quant6_scale = { 96, { 0.00036085819010622799, 0.00047734344843775034, 0.00031551980646327138, 0.00036639563040807843, 0.00038749186205677688, 0.00039765541441738605, 0.000207700883038342, 0.0003398492990527302, 0.00029354231082834303, 0.00044858924229629338, 0.00022005647770129144, 0.00025003269547596574, 0.00033425074070692062, 0.0013902076752856374, 0.00022738984262105078, 0.00018846083548851311, 0.00016412173863500357, 0.00029585193260572851, 0.00046081418986432254, 0.00037101644556969404, 0.00015925898333080113, 0.00011308473767712712, 0.0001590104220667854, 0.00014580581046175212, 0.00020891253370791674, 0.00063280231552198529, 0.00077287747990339994, 0.00038320489693433046, 0.00032610874040983617, 0.00051110808271914721, 0.00028193913749419153, 0.00036788114812225103, 0.00025695748627185822, 0.00026375908055342734, 0.00033296336187049747, 0.00026130155310966074, 0.00024259087513200939, 0.00025078424368984997, 0.0003835419483948499, 0.00040260367677547038, 0.00014866885612718761, 0.00054479471873492002, 0.00035489321453496814, 0.00023046880960464478, 0.00051588757196441293, 0.00027432132628746331, 0.00029870381695218384, 0.00034470317768864334, 0.00038354625576175749, 0.00031020835740491748, 0.00022962596267461777, 0.00020633569511119276, 0.00052265048725530505, 0.0002589032519608736, 0.00050520151853561401, 0.00049837975529953837, 0.00050758110592141747, 0.0003015979309566319, 0.00044137050281278789, 0.00021840844419784844, 0.00087032426381483674, 0.00051510462071746588, 0.00019798956054728478, 0.00054438813822343946, 0.00053906493121758103, 0.00029172244830988348, 0.00013229086471255869, 0.00025017478037625551, 0.00049416010733693838, 0.00045776378829032183, 0.00030267238616943359, 0.00029913036269135773, 0.00077039445750415325, 0.00041185630834661424, 0.00035000967909581959, 0.00025368071510456502, 0.00030594872077926993, 0.00011502620327519253, 0.00014549262414220721, 0.00026803649961948395, 0.00014864609693177044, 0.00014735963486600667, 0.000202550771064125, 0.00022439954045694321, 0.00013269082410261035, 0.00024909820058383048, 0.0005400580121204257, 0.00019310423522256315, 0.00014262362674344331, 0.0005747818504460156, 0.00035355775617063046, 0.00032353796996176243, 0.00038831273559480906, 0.00044066403643228114, 0.00040000476292334497, 0.00022782468295190483, } };
const TfArray<96, int> quant6_zero = { 96, { 0,0,0,0,0,0,0,0,0,0,0,0,0,0,0,0,0,0,0,0,0,0,0,0,0,0,0,0,0,0,0,0,0,0,0,0,0,0,0,0,0,0,0,0,0,0,0,0,0,0,0,0,0,0,0,0,0,0,0,0,0,0,0,0,0,0,0,0,0,0,0,0,0,0,0,0,0,0,0,0,0,0,0,0,0,0,0,0,0,0,0,0,0,0,0,0 } };
const TfLiteAffineQuantization quant6 = { (TfLiteFloatArray*)&quant6_scale, (TfLiteIntArray*)&quant6_zero, 0 };
const ALIGN(16) int8_t tensor_data7[96*1*1*16] = { 
  /* [0][0][][] */ -22,82,4,-127,-53,-25,-30,-58,-25,26,-9,72,19,-63,-6,41, 
  /* [1][0][][] */ -34,30,-56,0,-25,-28,25,-77,69,43,-56,21,-1,6,33,-127, 
  /* [2][0][][] */ 4,9,-20,39,42,33,-54,-48,127,-21,-5,10,-10,103,-60,24, 
  /* [3][0][][] */ 54,-83,-11,-110,22,-45,3,7,115,-4,94,52,-15,49,10,127, 
  /* [4][0][][] */ -77,52,18,45,6,-20,0,52,-3,15,22,-21,-127,-9,-22,28, 
  /* [5][0][][] */ -2,79,123,-1,18,95,-87,78,-48,73,-34,-44,38,-54,-127,18, 
  /* [6][0][][] */ 29,-44,126,-127,35,4,-49,94,-78,-108,35,-39,7,73,-32,62, 
  /* [7][0][][] */ 49,106,-29,-49,105,9,9,-45,127,104,-20,27,23,-13,50,46, 
  /* [8][0][][] */ 9,-74,21,-90,13,-46,12,-71,19,60,61,-14,18,127,82,57, 
  /* [9][0][][] */ 12,-21,-11,127,36,-21,51,-61,-75,121,33,-27,-2,-61,-6,3, 
  /* [10][0][][] */ -5,30,-30,-127,-5,8,-11,37,20,-24,5,-30,-11,-39,7,21, 
  /* [11][0][][] */ -4,23,20,-35,76,-49,90,-76,-107,26,-10,19,4,127,-81,-32, 
  /* [12][0][][] */ 59,-25,-127,-16,38,-94,9,-3,16,27,-44,-31,-8,61,-15,37, 
  /* [13][0][][] */ -18,12,-21,7,-1,-127,-8,19,5,-15,4,-2,11,-13,14,12, 
  /* [14][0][][] */ 37,-34,105,-21,79,0,-127,-91,-13,-43,44,29,11,-53,-28,-34, 
  /* [15][0][][] */ -107,41,-11,-72,-16,21,127,51,-28,31,73,-47,12,92,79,4, 
  /* [16][0][][] */ 7,65,127,74,-9,25,76,60,-82,1,-77,-19,13,1,9,-82, 
  /* [17][0][][] */ -41,-104,-9,25,-77,-18,-62,13,-127,-27,8,-49,-1,36,64,-37, 
  /* [18][0][][] */ 9,37,1,71,43,1,25,-2,71,48,-27,-25,12,127,52,14, 
  /* [19][0][][] */ 6,-16,36,1,86,28,-93,-62,-90,-64,-53,-127,-30,-49,9,-49, 
  /* [20][0][][] */ 85,-22,-49,-46,-6,-112,-1,17,-60,39,-127,-26,30,-8,36,1, 
  /* [21][0][][] */ 79,-33,56,-15,6,-5,4,81,-17,-77,80,28,-17,127,28,80, 
  /* [22][0][][] */ -34,46,-31,127,-76,18,100,82,-28,54,-39,34,16,1,38,-7, 
  /* [23][0][][] */ 57,1,127,-103,27,-14,-9,26,-11,20,-22,-36,1,-10,-99,16, 
  /* [24][0][][] */ -127,45,11,-13,6,101,24,-19,2,13,98,-6,-79,14,51,-32, 
  /* [25][0][][] */ 24,29,18,17,6,12,64,-50,-8,-127,-22,-25,-8,-32,14,17, 
  /* [26][0][][] */ -36,-2,-1,10,-42,-11,-36,-31,-101,-32,3,-32,12,127,-35,54, 
  /* [27][0][][] */ -5,30,10,65,39,-23,-18,-31,61,7,-24,-3,5,127,-9,16, 
  /* [28][0][][] */ 10,67,52,65,127,-18,28,34,-89,-16,-33,-23,10,78,32,-30, 
  /* [29][0][][] */ -3,2,14,10,22,4,8,29,-16,-16,-21,-127,2,-10,-13,0, 
  /* [30][0][][] */ -16,76,-55,82,-32,-20,45,-127,-43,63,-7,6,57,41,74,91, 
  /* [31][0][][] */ -40,-28,-21,-61,4,-9,-44,-114,22,86,-1,-127,-40,-42,16,38, 
  /* [32][0][][] */ -127,-71,0,55,47,43,-17,8,4,-47,-107,40,68,-3,60,63, 
  /* [33][0][][] */ -18,-33,-32,-16,-106,-4,-91,8,60,12,1,-58,35,-126,127,24, 
  /* [34][0][][] */ 48,-5,72,23,44,23,-51,83,-86,-51,67,17,12,-11,-18,127, 
  /* [35][0][][] */ -48,64,-69,12,-19,-14,26,-121,98,90,-95,-5,7,-12,90,-127, 
  /* [36][0][][] */ -29,42,1,127,37,28,113,12,-1,36,-2,3,-20,22,-51,-45, 
  /* [37][0][][] */ -3,0,15,-65,3,-3,-39,-47,-67,-24,-5,-12,3,-127,45,-43, 
  /* [38][0][][] */ 44,82,-9,-46,127,-6,34,-36,102,76,-10,-2,11,-22,41,17, 
  /* [39][0][][] */ -35,60,-5,-127,-23,11,-40,30,34,-65,-29,-21,13,60,42,25, 
  /* [40][0][][] */ -6,-12,33,-100,-13,-11,-8,-33,-127,-9,-26,-35,-18,-124,83,-79, 
  /* [41][0][][] */ -14,-17,-41,-22,1,-25,19,-13,-31,19,-51,-12,-127,15,28,35, 
  /* [42][0][][] */ 127,76,-33,-20,-70,-56,-12,-47,-4,32,86,-54,-53,54,102,-100, 
  /* [43][0][][] */ 3,92,-91,6,77,-31,127,-38,38,109,-28,8,29,-122,-81,-44, 
  /* [44][0][][] */ -34,-8,20,-48,46,16,-99,-127,-24,-6,-1,0,1,-38,82,-59, 
  /* [45][0][][] */ 0,28,-127,-29,30,-74,29,-63,-5,39,10,-61,30,-17,47,-15, 
  /* [46][0][][] */ 17,-4,-16,-99,-17,21,25,-26,-127,-18,7,12,-9,-125,82,-27, 
  /* [47][0][][] */ 23,46,22,-13,127,-18,-24,18,-59,44,2,25,5,6,117,-24, 
  /* [48][0][][] */ -127,-66,-22,37,68,17,9,-16,8,-29,-102,43,56,12,70,43, 
  /* [49][0][][] */ 14,7,101,77,125,-3,47,28,-127,-52,-39,-80,18,124,22,-59, 
  /* [50][0][][] */ 7,3,-127,-25,29,-116,-59,-35,-34,-62,19,-42,19,-18,9,34, 
  /* [51][0][][] */ 7,41,45,16,29,4,2,31,-127,63,9,-114,4,-110,-19,91, 
  /* [52][0][][] */ 11,51,6,60,52,-4,32,38,69,93,-19,-45,32,127,55,16, 
  /* [53][0][][] */ -8,-44,-12,-21,-94,-3,-83,4,52,16,6,-65,27,-127,119,12, 
  /* [54][0][][] */ 58,-24,-52,13,127,72,-109,-37,-84,1,-27,-68,2,-44,-13,-33, 
  /* [55][0][][] */ 51,-13,-2,8,48,-44,-61,-127,-32,-67,-46,16,-9,-19,11,-3, 
  /* [56][0][][] */ -21,19,29,-27,-12,-22,-97,64,-15,127,-10,-21,27,3,2,8, 
  /* [57][0][][] */ 5,13,-46,-22,-57,-47,122,98,-35,36,-12,-1,29,27,127,-5, 
  /* [58][0][][] */ 40,24,-127,32,87,89,-32,46,-100,-38,2,7,-38,24,-1,-19, 
  /* [59][0][][] */ -87,72,108,27,-67,-66,127,121,26,4,35,-12,9,21,64,-8, 
  /* [60][0][][] */ 8,-4,-53,-7,16,-127,-28,-2,-18,-9,-13,-30,31,-22,9,5, 
  /* [61][0][][] */ 18,-9,21,127,67,22,17,5,-85,5,14,47,-17,17,32,-57, 
  /* [62][0][][] */ -46,127,18,-56,-39,-2,-65,52,-15,-62,-96,-64,-10,-97,-52,-39, 
  /* [63][0][][] */ -38,26,-22,127,-83,13,-71,-32,-66,-23,-24,-43,18,69,36,43, 
  /* [64][0][][] */ 14,-1,4,49,10,7,-10,72,35,7,-11,-42,-11,-127,50,-1, 
  /* [65][0][][] */ -14,-50,4,-127,47,-44,68,-32,-20,55,19,-108,-18,7,10,-42, 
  /* [66][0][][] */ 25,-9,53,-15,11,-5,-5,92,17,-90,48,37,-4,127,5,60, 
  /* [67][0][][] */ 9,46,-19,-127,-9,-7,-54,37,76,-86,-23,-1,28,87,82,42, 
  /* [68][0][][] */ -26,29,127,15,16,-1,-2,-1,-46,-13,-12,-30,15,-16,85,-29, 
  /* [69][0][][] */ 127,71,-12,-2,-82,-29,-30,-29,-1,27,86,-55,-64,62,67,-84, 
  /* [70][0][][] */ 33,11,-51,-17,-32,34,48,127,-35,91,-40,2,14,68,-20,28, 
  /* [71][0][][] */ 9,1,-5,14,7,-83,5,22,-30,12,-74,9,-127,1,39,45, 
  /* [72][0][][] */ 18,14,-127,17,18,10,31,94,-32,-21,14,-4,19,21,-4,2, 
  /* [73][0][][] */ -48,20,39,0,41,-29,-70,-127,14,-63,30,-21,13,-49,40,-17, 
  /* [74][0][][] */ 1,38,43,125,19,-3,-81,84,-62,17,-51,37,19,-127,42,-94, 
  /* [75][0][][] */ -25,40,-62,-1,-1,-7,13,-26,127,10,-26,-17,19,113,-35,-5, 
  /* [76][0][][] */ 3,-13,-1,24,7,-18,-12,67,21,-35,-12,-127,-7,-3,4,15, 
  /* [77][0][][] */ -21,43,3,127,-69,33,80,119,19,48,-23,29,-11,-27,-4,-23, 
  /* [78][0][][] */ -1,14,53,-127,32,-20,-44,37,31,-57,-8,-51,33,114,29,29, 
  /* [79][0][][] */ -18,-82,-78,-61,-87,-6,23,-81,127,6,19,48,12,32,35,-57, 
  /* [80][0][][] */ -26,-14,127,-110,-2,-25,12,-83,-71,84,-72,-126,39,91,103,-56, 
  /* [81][0][][] */ -48,52,-127,26,70,-119,-16,49,4,-49,65,-6,20,6,11,-6, 
  /* [82][0][][] */ 127,-12,-10,21,10,-116,-32,26,-18,-10,-104,1,113,4,0,35, 
  /* [83][0][][] */ -33,77,-105,-91,-43,-7,39,-112,57,64,-59,-127,12,44,59,100, 
  /* [84][0][][] */ -43,39,55,-35,4,-21,57,-127,-31,36,-11,-56,36,42,64,-9, 
  /* [85][0][][] */ -74,127,31,-120,-79,-24,-28,-1,-51,-9,-72,18,10,-13,-83,-27, 
  /* [86][0][][] */ -16,1,-39,-6,-39,-28,127,25,-8,-20,-7,5,14,22,98,-13, 
  /* [87][0][][] */ -22,-46,-2,-120,14,-41,58,-15,-12,26,-5,-127,-21,8,10,-36, 
  /* [88][0][][] */ 88,-14,63,-25,7,-92,-1,13,-57,28,-127,-66,26,24,82,-12, 
  /* [89][0][][] */ 23,-23,-48,-41,32,-16,-26,-11,-43,-3,44,-58,127,-6,20,-47, 
  /* [90][0][][] */ 4,-50,40,-55,71,-10,-65,88,61,-87,-30,-18,-19,118,12,-127, 
  /* [91][0][][] */ -33,-8,-15,-49,7,-12,-27,-80,-2,72,-28,-127,-21,-24,12,2, 
  /* [92][0][][] */ -22,18,41,19,1,-127,12,5,-3,-20,2,-10,4,-24,20,9, 
  /* [93][0][][] */ 42,-18,127,-7,-45,55,29,-27,-15,24,-67,-14,-25,2,25,-2, 
  /* [94][0][][] */ 30,-4,-20,-18,28,-10,-12,-4,-35,-13,18,-50,127,-14,30,-27, 
  /* [95][0][][] */ 127,83,-3,39,-85,-19,-59,-1,-28,-13,92,-36,-44,32,70,-67, 
};
const TfArray<4, int> tensor_dimension7 = { 4, { 96,1,1,16 } };
const TfArray<96, float> quant7_scale = { 96, { 0.0008392087765969336, 0.0011101058917120099, 0.00073377019725739956, 0.00085208658128976822, 0.00090114778140559793, 0.00092478404985740781, 0.00048302739742211998, 0.00079035066301003098, 0.00068265950540080667, 0.001043235301040113, 0.00051176146371290088, 0.00058147392701357603, 0.00077733065700158477, 0.003233055118471384, 0.00052881590090692043, 0.00043828293564729393, 0.00038168011815287173, 0.0006880307337269187, 0.001071665552444756, 0.00086283270502462983, 0.00037037133006379008, 0.00026298890588805079, 0.00036979329888708889, 0.00033908477053046227, 0.00048584520118311048, 0.001471639727242291, 0.0017973972717300057, 0.00089117803145200014, 0.00075839570490643382, 0.0011886286083608866, 0.00065567524870857596, 0.00085554126417264342, 0.00059757818235084414, 0.00061339588137343526, 0.00077433674596250057, 0.00060768064577132463, 0.00056416727602481842, 0.00058322172844782472, 0.00089196191402152181, 0.00093629170442000031, 0.00034574302844703197, 0.0012669699499383569, 0.00082533666864037514, 0.00053597631631419063, 0.0011997437104582787, 0.00063795933965593576, 0.00069466308923438191, 0.00080163881648331881, 0.00089197192573919892, 0.00072141789132729173, 0.00053401617333292961, 0.00047985254786908627, 0.0012154715368524194, 0.00060210318770259619, 0.0011748924152925611, 0.0011590276844799519, 0.0011804263340309262, 0.00070139358285814524, 0.001026447513140738, 0.00050792883848771453, 0.0020240186713635921, 0.0011979229748249054, 0.00046044282498769462, 0.0012660244246944785, 0.0012536448193714023, 0.00067842722637578845, 0.0003076544962823391, 0.00058180431369692087, 0.0011492145713418722, 0.0010645715519785881, 0.00070389232132583857, 0.00069565500598400831, 0.0017916228389367461, 0.00095780950505286455, 0.00081397953908890486, 0.00058995769359171391, 0.00071151176234707236, 0.00026750395772978663, 0.00033835641806945205, 0.0006233433960005641, 0.00034569008857943118, 0.00034269833122380078, 0.00047105035628192127, 0.00052186165703460574, 0.00030858465470373631, 0.0005793006275780499, 0.0012559543829411268, 0.00044908156269229949, 0.00033168430672958493, 0.0013367078499868512, 0.00082223094068467617, 0.00075241713784635067, 0.00090305681806057692, 0.0010248045437037945, 0.00093024765374138951, 0.0005298271425999701, } };
const TfArray<96, int> quant7_zero = { 96, { 0,0,0,0,0,0,0,0,0,0,0,0,0,0,0,0,0,0,0,0,0,0,0,0,0,0,0,0,0,0,0,0,0,0,0,0,0,0,0,0,0,0,0,0,0,0,0,0,0,0,0,0,0,0,0,0,0,0,0,0,0,0,0,0,0,0,0,0,0,0,0,0,0,0,0,0,0,0,0,0,0,0,0,0,0,0,0,0,0,0,0,0,0,0,0,0 } };
const TfLiteAffineQuantization quant7 = { (TfLiteFloatArray*)&quant7_scale, (TfLiteIntArray*)&quant7_zero, 0 };
const ALIGN(16) int32_t tensor_data8[16] = { -11074, 14507, -16849, -6732, -14901, 8465, 27793, -53665, -2836, 13373, 21578, 12409, -8245, 7999, -3530, 10319, };
const TfArray<1, int> tensor_dimension8 = { 1, { 16 } };
const TfArray<16, float> quant8_scale = { 16, { 0.00084080646047368646, 0.0005430493620224297, 0.00025547985569573939, 0.00023042756947688758, 0.00039902381831780076, 0.00033188582165166736, 0.00032578865648247302, 0.00028888086671940982, 0.00035916292108595371, 0.00027090037474408746, 0.0006514565902762115, 0.00053671433124691248, 0.00043993676081299782, 0.00023410472203977406, 0.00054385385010391474, 0.00037474764394573867, } };
const TfArray<16, int> quant8_zero = { 16, { 0,0,0,0,0,0,0,0,0,0,0,0,0,0,0,0 } };
const TfLiteAffineQuantization quant8 = { (TfLiteFloatArray*)&quant8_scale, (TfLiteIntArray*)&quant8_zero, 0 };
const ALIGN(16) int8_t tensor_data9[16*1*1*96] = { 
  /* [0][0][][] */ -16,-9,6,-30,23,-6,-40,-4,21,1,-8,7,-4,-11,-30,8,3,4,2,-1,13,-29,4,4,7,10,5,127,36,-30,35,-16,-1,9,8,2,-7,15,-34,-8,-14,5,3,37,5,10,11,3,27,-3,-10,6,18,-13,-6,74,2,4,-23,-35,-3,20,-1,-22,-40,-60,-18,41,6,22,15,-17,-9,-26,-8,-21,-21,13,-1,5,-11,-22,27,19,-1,-15,-11,-86,6,-9,3,-4,46,-31,-27,-8, 
  /* [1][0][][] */ 30,-58,-66,-54,127,-9,50,38,-21,-82,-44,-12,9,-10,-62,30,-55,5,53,32,17,41,-21,-60,21,-5,-18,-66,40,-18,-62,26,-16,34,5,-7,3,-8,2,12,-29,27,-36,-23,-31,77,7,1,24,-73,3,-43,-12,32,55,11,-61,-26,-27,-35,20,-21,2,-41,-75,98,-20,-26,-10,-25,-13,15,45,-91,-32,8,40,-50,35,5,2,-24,21,1,-36,23,-21,23,24,-26,-8,6,26,5,15,89, 
  /* [2][0][][] */ -11,59,-79,-21,69,75,34,65,-11,-87,-1,-13,-8,4,27,20,1,-15,-54,53,11,5,76,17,53,16,-11,-32,37,-3,44,-42,30,45,-29,37,-127,-86,23,33,13,-48,15,-16,17,-24,-5,57,-21,28,-27,-1,83,-13,-9,52,30,12,34,-4,21,25,36,-23,25,-7,-24,-3,-38,1,-18,-34,-46,-78,13,54,55,40,30,-11,36,-37,16,-10,-35,29,12,42,-11,22,6,-15,-7,-41,-62,10, 
  /* [3][0][][] */ 61,19,99,-10,34,-41,32,-32,-20,-57,17,-28,-4,48,40,108,18,5,21,16,127,-4,46,32,46,-26,2,16,37,53,-2,93,-103,27,27,1,-18,-20,-10,51,-82,-31,70,20,6,44,-49,-82,-53,-35,-48,56,3,-114,-5,18,-92,73,66,31,9,98,-15,-48,33,64,-1,-41,46,2,-14,-65,44,-44,63,-17,-2,5,54,42,-31,-66,36,-18,-31,17,25,45,46,8,22,41,31,102,55,-12, 
  /* [4][0][][] */ 20,0,27,-11,127,28,-8,-33,-29,-44,-28,-20,-46,21,-14,62,31,-67,-41,76,-19,11,27,-13,-3,-13,16,-29,18,-3,51,-41,87,15,-19,17,44,22,19,3,-31,-11,-17,-21,-11,-51,-17,5,44,5,-25,11,4,-21,8,-34,26,-13,-23,23,3,48,63,29,40,56,-13,4,-40,23,35,52,12,-59,-44,-26,25,24,66,-33,-1,-26,13,-13,-61,2,34,55,-39,36,5,-36,11,16,35,-9, 
  /* [5][0][][] */ -1,-7,-6,7,13,-18,42,-35,-25,-36,-10,15,-3,33,-3,21,-7,0,10,-9,27,19,-35,65,12,-9,14,-92,-1,35,18,35,-2,8,5,-54,24,19,-8,15,-4,-13,32,-12,-14,-2,4,-25,-13,-13,10,-9,2,-29,-7,-53,3,15,-15,9,62,11,7,36,2,51,9,77,17,100,5,28,5,6,-2,67,-35,-11,16,14,0,-6,12,19,-9,20,-16,127,7,28,0,-7,-1,16,-48,28, 
  /* [6][0][][] */ 24,-76,28,-36,-32,11,32,7,13,-8,-8,-53,-27,-6,-26,29,19,-11,9,-5,-41,45,19,10,-36,-4,-12,-14,-21,29,34,-16,57,15,68,-11,-6,-9,20,-103,-26,90,-2,-37,13,-22,-26,18,-2,28,-33,74,-15,-52,-9,-16,1,-63,-3,-1,-14,55,28,-76,29,-31,15,-14,-6,22,127,4,-46,23,-35,31,-91,-14,8,2,24,54,36,-5,-18,-4,40,30,27,3,47,-36,-20,-7,-21,0, 
  /* [7][0][][] */ 5,127,42,13,114,56,50,-20,-28,-32,32,-20,-25,34,28,23,6,-37,6,33,44,-42,44,15,-12,15,10,1,16,-21,20,31,40,-1,-47,2,15,7,-18,94,-39,33,10,27,-10,-19,28,-18,-41,-22,38,14,18,-54,-40,60,54,7,-27,0,-11,-40,-11,2,-49,66,-36,-96,-11,-62,-4,76,-12,-26,23,11,54,69,54,-18,-44,-46,-15,10,-20,67,-3,-12,-31,25,-38,-47,-52,-13,28,-14, 
  /* [8][0][][] */ -13,6,53,12,-127,-29,38,-22,24,88,63,13,-10,17,21,14,-44,9,4,-4,-44,5,-106,62,16,-38,58,-8,12,8,0,49,74,-20,-8,7,-22,-11,7,31,19,-35,44,10,-50,-5,39,0,-97,21,20,27,-54,-35,-26,41,14,-51,-74,-25,9,-35,-15,-5,10,69,1,-49,26,4,-47,-27,32,44,52,-10,-24,-43,-16,23,-73,14,-6,-5,23,25,54,42,31,-32,43,51,2,-6,52,22, 
  /* [9][0][][] */ 16,-98,-11,14,105,75,-38,-36,26,-46,95,94,-15,8,87,-93,13,-30,2,12,-55,-40,32,-22,-16,4,6,29,-19,14,8,-20,26,17,-101,29,-7,13,-19,60,23,-77,-16,59,-8,-19,-70,-33,38,18,-23,-78,57,36,-9,-59,-7,84,-7,-4,26,-57,-36,127,-86,-9,2,-10,-5,45,-54,-72,41,6,4,34,62,-69,11,7,-16,-13,12,17,4,-74,15,2,7,-21,-49,39,-61,-9,7,-41, 
  /* [10][0][][] */ -45,-16,-26,-43,-19,-7,61,-29,44,14,31,37,30,-11,-11,4,-3,23,-25,-14,-1,36,15,25,-13,-13,13,-127,27,-39,51,-42,1,22,0,-9,0,38,7,-11,4,-35,30,-51,9,-7,25,16,3,31,-31,-21,-33,-15,-4,-60,19,9,-1,-41,26,8,-3,7,-37,97,-15,-28,17,-11,-5,-21,-30,-5,17,57,-5,34,-21,16,-20,5,11,23,5,-20,-12,126,6,1,11,12,23,-37,53,-29, 
  /* [11][0][][] */ -88,19,3,2,8,-65,-8,-15,-44,-6,-4,27,28,27,-22,5,54,13,-70,-43,27,-5,-5,12,74,2,80,-2,-16,35,-33,26,-6,21,-9,-7,-7,8,22,17,-12,0,6,14,69,22,84,23,51,45,2,46,7,-57,23,-14,-54,-13,-35,-43,-8,-9,0,23,-7,-23,31,10,38,28,-12,24,-25,5,35,2,-28,88,-127,73,-33,-3,-56,-66,121,26,43,-5,22,48,-30,-55,-17,47,-14,5, 
  /* [12][0][][] */ -4,-8,-41,0,53,13,4,-13,-9,15,19,-7,-1,-14,29,-3,-32,-8,5,-20,-15,-20,-35,44,-16,33,-23,88,-17,25,-28,10,-9,21,10,29,-11,-11,18,12,3,-13,4,4,-9,-4,23,20,-2,-4,1,-24,-12,14,-13,-19,-4,-6,13,21,-11,-16,-4,42,32,-71,8,51,-27,-127,-4,46,6,11,14,69,-2,-14,-9,1,-1,14,-39,-1,10,-12,1,-43,-16,14,10,6,-33,32,-6,14, 
  /* [13][0][][] */ -80,65,-3,-8,-67,5,-8,3,-27,-30,46,37,91,21,-17,9,-14,32,-45,-11,27,-9,55,-44,62,32,11,3,14,-24,-42,-101,-93,-33,11,12,3,30,36,-14,-34,79,10,15,39,5,-7,15,71,-21,40,87,57,-51,78,-24,-15,59,41,7,11,30,-16,31,-1,-20,12,24,26,44,18,-127,15,-17,-70,11,45,40,-51,-43,91,-15,16,-31,43,-28,95,10,-7,5,-15,25,35,-37,0,24, 
  /* [14][0][][] */ -30,22,-21,-55,41,2,-17,40,-91,-5,15,6,-28,-62,-77,-27,-87,-21,69,10,30,1,10,-113,-36,21,-62,-19,14,-25,-14,-36,-65,-29,18,11,-15,-2,4,-6,6,78,-77,-24,-43,14,6,8,127,-27,25,-17,36,53,-97,21,-36,26,-101,14,5,25,33,22,-2,30,-4,-4,-64,6,64,30,33,-11,-33,21,61,-76,-26,-100,9,-32,0,36,34,-75,-46,6,-45,27,32,52,5,30,11,-24, 
  /* [15][0][][] */ -33,-78,-15,-41,9,10,-2,-69,-25,24,-8,-37,45,-6,44,-23,-98,-4,-18,19,-12,1,-64,-45,2,2,-6,20,-22,-16,69,-89,-10,23,19,0,-11,17,-105,10,33,-74,-4,30,-22,-51,51,35,51,17,-9,-127,-10,49,-3,45,41,-12,-21,43,4,4,38,0,6,-7,-17,-6,-19,15,2,42,-41,4,6,-38,-33,-11,8,6,-9,40,-10,72,-22,-39,-36,-37,-48,63,24,81,-38,4,-8,-17, 
};
const TfArray<4, int> tensor_dimension9 = { 4, { 16,1,1,96 } };
const TfArray<16, float> quant9_scale = { 16, { 0.035734273493289948, 0.023079598322510719, 0.010857893154025078, 0.0097931716591119766, 0.016958512365818024, 0.014105146750807762, 0.013846017420291901, 0.012277436442673206, 0.015264423564076424, 0.011513265781104565, 0.027686905115842819, 0.022810358554124832, 0.018697312101721764, 0.0099494503811001778, 0.023113789036870003, 0.015926774591207504, } };
const TfArray<16, int> quant9_zero = { 16, { 0,0,0,0,0,0,0,0,0,0,0,0,0,0,0,0 } };
const TfLiteAffineQuantization quant9 = { (TfLiteFloatArray*)&quant9_scale, (TfLiteIntArray*)&quant9_zero, 0 };
const ALIGN(16) int32_t tensor_data10[96] = { 14848, 64595, -2243, -588, 13261, -8136, 801, -1155, 6283, 6974, -4750, 738, 448, 4263, 5373, -8635, -3809, -493, -696, 17480, -9632, 14176, -2147, 7198, 16422, 122, -7445, 16105, 13647, -19838, 1527, 22354, 23992, -7781, 2094, 239, -543, 241, 4226, -5680, -5198, -1367, -8478, 135, 30504, -1496, 12770, -824, -15043, 278, -9, 45, -1653, 18853, -2121, 15523, 20035, 286, 33011, -593, -8690, -808, 1560, -247, -1353, 14043, -674, -9116, -4297, 3467, 331, -3457, 1503, 435, -1837, -4283, 379, -915, 43481, -5399, -5889, -12179, -546, 947, 63472, -12757, -11314, -27088, -8943, 10031, -2001, 34925, -116, -1160, -3561, 1096, };
const TfArray<1, int> tensor_dimension10 = { 1, { 96 } };
const TfArray<96, float> quant10_scale = { 96, { 0.00015910767251625657, 8.7471787992399186e-05, 0.00012206174869788811, 0.00021928382921032608, 0.00026245022309012711, 9.5719624368939549e-05, 5.0776408897945657e-05, 9.758499072631821e-05, 0.00024214043514803052, 0.00034756603417918086, 0.00023377191973850131, 0.00011385404650354758, 0.00025350908981636167, 0.00020224977924954146, 0.00042620219755917788, 0.00014819645730312914, 0.00024134453269653022, 0.00022623033146373928, 0.00020405041868798435, 6.4804895373526961e-05, 8.8788634457159787e-05, 5.7344408560311422e-05, 0.00013999226212035865, 0.00010376258433097973, 8.3567108958959579e-05, 0.0001079163994290866, 0.00014470325550064445, 0.00019188779697287828, 7.2124013968277723e-05, 0.00044778420124202967, 0.00035658822162076831, 0.00027253603911958635, 0.00012047644850099459, 0.00021314680634532124, 0.00023035780759528279, 0.00044444366358220577, 0.00042170958477072418, 0.00025974077288992703, 0.00024641799973323941, 0.00012717593926936388, 0.00025158844073303044, 0.0002067006571451202, 0.00033526521292515099, 8.4314902778714895e-05, 0.00038749046507291496, 8.0051366239786148e-05, 0.00011834857286885381, 0.00030783386318944395, 0.00065031670965254307, 0.00012347240408416837, 0.00036496689426712692, 0.00014052054029889405, 0.000322198640787974, 0.00014578693662770092, 0.00037005505873821676, 0.00011922769044758752, 0.00013643411512020975, 0.00048528998740948737, 4.5594446419272572e-05, 0.00019438023446127772, 0.00032336812000721693, 0.00031626861891709268, 0.00010714375821407884, 0.00016371629317291081, 0.00013034050061833113, 0.00013010477414354682, 0.00029365095542743802, 0.00022553669987246394, 0.00019018515013158321, 0.00011975887173321098, 0.00026222085580229759, 0.00010659440886229277, 0.00028089489205740392, 0.00015055859694257379, 0.00033257267205044627, 0.00042259611655026674, 0.00010999850201187655, 7.4746727477759123e-05, 5.9460024203872308e-05, 0.00023006474657449871, 0.00027119822334498167, 0.00022179850202519447, 0.00014293527055997401, 0.00034535714075900614, 5.5767894082237035e-05, 0.00011389520659577101, 7.1527749241795391e-05, 0.00046465214109048247, 0.00020752035197801888, 0.00012719049118459225, 0.00038487711572088301, 3.051766543649137e-05, 0.00015006224566604942, 0.0001030982457450591, 0.00030811430769972503, 0.00028214920894242823, } };
const TfArray<96, int> quant10_zero = { 96, { 0,0,0,0,0,0,0,0,0,0,0,0,0,0,0,0,0,0,0,0,0,0,0,0,0,0,0,0,0,0,0,0,0,0,0,0,0,0,0,0,0,0,0,0,0,0,0,0,0,0,0,0,0,0,0,0,0,0,0,0,0,0,0,0,0,0,0,0,0,0,0,0,0,0,0,0,0,0,0,0,0,0,0,0,0,0,0,0,0,0,0,0,0,0,0,0 } };
const TfLiteAffineQuantization quant10 = { (TfLiteFloatArray*)&quant10_scale, (TfLiteIntArray*)&quant10_zero, 0 };
const ALIGN(16) int8_t tensor_data11[1*3*3*96] = { 
  /* [0][0][][] */ -45,-72,-9,127,22,72,78,-57,-16,-18,-15,-7,-29,0,36,2,-10,-43,27,22,19,-127,127,5,-86,5,50,-28,-126,-127,39,25,13,26,60,-19,-29,-11,31,-8,-12,28,-108,72,25,-68,37,46,-18,52,-24,19,3,-7,18,47,-91,-49,-60,-19,-11,1,10,37,69,-25,73,13,-6,15,20,127,23,23,26,-1,-10,18,127,-6,-14,15,-28,21,127,19,-75,-17,0,-32,-16,-40,1,-26,-15,25, 127,-127,76,105,-43,127,40,-114,68,4,-17,127,127,-98,-13,15,10,127,127,-112,127,-77,81,68,-127,-117,-65,-34,-55,46,-59,-19,-90,52,-127,-84,-42,-15,-52,59,0,127,127,83,-52,-113,-112,-51,-16,-127,42,86,66,-32,45,82,-47,42,-80,-113,-45,-42,-62,67,74,-61,25,31,-79,32,-17,89,116,127,13,20,2,58,-34,53,65,127,127,-22,-9,74,-110,127,-121,-98,4,-127,-91,-127,-38,104, -73,-12,31,-82,14,-24,65,-5,78,-35,-28,17,-19,-4,-9,-11,-9,-16,7,-3,-21,-103,29,-1,-121,94,9,-54,118,50,-15,10,1,13,14,-29,-8,33,19,9,26,12,-119,64,17,-18,37,13,-15,11,-17,6,-10,1,-3,19,-67,6,-32,53,1,40,32,-1,-7,-39,-33,24,11,3,-3,34,10,-25,-6,4,-12,-6,-84,2,-21,-25,-18,3,-110,9,-33,-23,-50,24,-25,-33,29,-27,-14,0, 
  /* [0][1][][] */ -63,-75,76,-35,-48,93,20,127,-53,-22,-1,-121,26,-115,77,31,-3,-60,-16,88,53,-69,47,50,-98,-13,127,-22,-24,64,122,-104,-127,86,-87,-56,-35,31,-28,97,-50,-25,-6,48,-47,127,-23,65,16,96,20,-2,14,-54,27,31,127,122,-72,-85,127,-32,-36,127,73,-39,-15,-1,127,41,127,97,-40,102,-4,12,14,14,-32,9,-43,125,-81,109,1,35,-54,30,82,-127,-32,-6,127,-69,-23,-1, 66,126,58,-115,127,85,88,40,-127,127,127,-40,-64,-127,-127,127,127,-63,-122,-51,104,97,-122,127,-109,-91,-43,127,-127,109,-127,-127,-89,127,107,127,127,-127,-105,127,-66,-96,108,-127,-127,-34,-127,-127,127,-111,86,44,127,127,127,-127,100,-127,-127,127,19,-79,-127,-100,-127,127,-127,127,-123,-127,-106,-82,-127,-78,127,127,-127,127,-78,127,127,29,-43,-127,60,127,93,46,127,11,127,2,-68,34,127,-127, -53,-14,-49,39,-56,-96,36,-23,17,-35,-29,94,2,94,13,11,-5,64,-6,126,3,-87,-42,7,-71,103,-70,-20,-69,-16,16,-64,-71,38,5,-17,-28,44,-68,43,127,-4,-39,29,-39,-57,16,45,9,119,-12,7,-36,-72,3,18,95,2,2,22,-36,127,90,-52,-43,12,38,-11,-74,123,-17,-86,-1,-53,-15,-21,26,17,76,-36,-70,-43,56,14,-48,-17,73,22,14,61,-44,21,-44,94,-26,-5, 
  /* [0][2][][] */ -66,1,-3,-20,13,-46,68,26,53,-29,-36,-2,19,19,-27,1,-7,65,8,1,-55,-81,1,-8,-28,-53,36,-68,91,38,26,26,16,-9,-11,-46,-6,34,-3,0,-15,-5,-69,105,3,31,11,36,-15,-30,11,-19,22,-1,9,14,-72,24,-15,14,14,-1,-21,-4,-1,-47,-47,15,-30,14,26,30,14,-19,28,4,17,4,-79,-12,-8,-7,17,13,-127,8,13,-44,-56,-50,-28,-48,9,56,-18,-8, 121,34,-127,-34,-72,-25,39,31,-65,-30,-20,-108,-76,113,-13,35,2,-50,-8,-127,92,-50,-39,1,-107,127,-49,20,-34,-21,-9,-4,-63,13,28,5,-22,-29,127,53,11,-14,67,-33,-39,75,-67,-43,-33,-4,-127,-127,-51,-26,2,38,-67,-8,12,39,-8,-19,8,-47,-55,33,62,-22,115,107,-23,-69,12,-57,4,4,98,4,51,22,12,-97,-50,2,3,9,127,40,-58,38,-19,-109,41,78,-9,26, -53,13,-16,27,15,-69,-127,4,-12,-8,-16,6,15,-26,18,-3,-8,-15,6,17,-48,-71,13,1,20,-94,22,4,-46,-39,-7,15,42,-21,-6,-24,-34,2,41,-40,22,-1,-49,-34,3,65,23,16,-9,-3,10,-8,17,6,-3,-6,-62,-13,3,-38,-12,11,83,-10,34,-2,-3,28,2,7,-3,21,-17,17,0,15,35,0,74,-11,3,-8,-7,-18,74,1,43,-39,60,39,-17,-52,-8,2,-14,-16, 
};
const TfArray<4, int> tensor_dimension11 = { 4, { 1,3,3,96 } };
const TfArray<96, float> quant11_scale = { 96, { 0.0067620761692523956, 0.0037175510078668594, 0.0051876241341233253, 0.0093195624649524689, 0.011154133826494217, 0.0040680840611457825, 0.002157997339963913, 0.0041473619639873505, 0.010290968231856823, 0.014771555550396442, 0.0099353063851594925, 0.0048387967981398106, 0.010774136520922184, 0.0085956156253814697, 0.018113592639565468, 0.0062983492389321327, 0.010257142595946789, 0.0096147889271378517, 0.0086721424013376236, 0.0027542079333215952, 0.0037735169753432274, 0.0024371373001486063, 0.0059496709145605564, 0.0044099097140133381, 0.0035516021307557821, 0.0045864470303058624, 0.0061498880386352539, 0.0081552313640713692, 0.0030652706045657396, 0.019030828028917313, 0.015154998749494553, 0.011582781560719013, 0.0051202489994466305, 0.0090587390586733818, 0.0097902063280344009, 0.01888885535299778, 0.017922656610608101, 0.01103898324072361, 0.010472765192389488, 0.0054049771279096603, 0.010692508891224861, 0.0087847774848341942, 0.014248771592974663, 0.0035833832807838917, 0.016468344256281853, 0.0034021830651909113, 0.0050298143178224564, 0.013082939200103283, 0.027638459578156471, 0.0052475770935416222, 0.015511092729866505, 0.0059721227735280991, 0.013693441636860371, 0.0061959447339177132, 0.015727339312434196, 0.0050671766512095928, 0.0057984497398138046, 0.020624823868274689, 0.001937763998284936, 0.0082611599937081337, 0.013743145391345024, 0.013441415503621101, 0.0045536095276474953, 0.0069579426199197769, 0.0055394712835550308, 0.0055294525809586048, 0.012480164878070354, 0.009585309773683548, 0.0080828685313463211, 0.005089751910418272, 0.011144386604428291, 0.0045302622020244598, 0.011938032694160938, 0.0063987402245402336, 0.01413433812558651, 0.017960334196686745, 0.0046749361790716648, 0.0031767359469085932, 0.0025270509067922831, 0.0097777517512440681, 0.011525924317538738, 0.0094264363870024681, 0.0060747489333152771, 0.014677678234875202, 0.0023701353929936886, 0.0048405462875962257, 0.0030399293173104525, 0.019747715443372726, 0.0088196145370602608, 0.0054055959917604923, 0.01635727658867836, 0.0012970006791874766, 0.0063776453025639057, 0.0043816752731800079, 0.013094858266413212, 0.011991341598331928, } };
const TfArray<96, int> quant11_zero = { 96, { 0,0,0,0,0,0,0,0,0,0,0,0,0,0,0,0,0,0,0,0,0,0,0,0,0,0,0,0,0,0,0,0,0,0,0,0,0,0,0,0,0,0,0,0,0,0,0,0,0,0,0,0,0,0,0,0,0,0,0,0,0,0,0,0,0,0,0,0,0,0,0,0,0,0,0,0,0,0,0,0,0,0,0,0,0,0,0,0,0,0,0,0,0,0,0,0 } };
const TfLiteAffineQuantization quant11 = { (TfLiteFloatArray*)&quant11_scale, (TfLiteIntArray*)&quant11_zero, 3 };
const ALIGN(16) int32_t tensor_data12[96] = { 1180, 7018, 9467, 19999, 15396, -2443, -1625, 5779, 26459, -3999, 7072, 3176, 6901, 8682, 26375, 946, 2084, 7296, 10060, 4642, -230, 255, 10822, -963, 5135, 114, 7721, 5303, 4831, 25473, 38835, 13179, 6031, -597, 6213, 1575, 1366, 4151, 11582, -790, 9383, 7186, 37223, -2667, 21417, 6222, 4790, 13976, 49463, 7162, -388, 5895, -3494, -195, -2217, 6053, -432, 12463, 4326, 8128, 5648, 12205, 8528, 4321, 7473, 7358, 4053, -4466, 6218, -2046, 3679, 8128, 14734, 5302, -3343, -4002, 4912, 273, 1732, -945, 14507, 11640, 5434, 17842, 2695, 185, 8993, 48283, 7788, 10270, 6041, -126, 4251, 5730, 4779, 12810, };
const TfArray<1, int> tensor_dimension12 = { 1, { 96 } };
const TfArray<96, float> quant12_scale = { 96, { 0.00031539230258204043, 0.00021068245405331254, 0.00019929723930545151, 0.00011557437392184511, 0.00019426124345045537, 0.00040998379699885845, 0.00050095247570425272, 0.00027719326317310333, 8.7988744780886918e-05, 0.00034513711580075324, 0.00038019954808987677, 0.00028559908969327807, 0.00018207101675216109, 0.00026519078528508544, 8.9954781287815422e-05, 0.00059364351909607649, 0.00021151956752873957, 0.00017193429812323302, 0.00022054377768654376, 0.00025294721126556396, 0.00035049501457251608, 0.00085058796685189009, 0.00018509839719627053, 0.00069329875987023115, 0.00050760339945554733, 0.00030108593637123704, 0.00028437524451874197, 0.0002643758780322969, 0.00033947199699468911, 0.00013804304762743413, 7.3569892265368253e-05, 0.00018905644537881017, 0.00027522695017978549, 0.00037530093686655164, 0.00032171729253605008, 0.00036606626235879958, 0.00036714458838105202, 0.00036004540743306279, 0.00023293767299037427, 0.00073261605575680733, 0.00019970076391473413, 0.00021743997058365494, 7.2780218033585697e-05, 0.00039630196988582611, 0.00015269969298969954, 0.0002493831270840019, 0.00036048900801688433, 0.00019134962349198759, 8.3613551396410912e-05, 0.00029083603294566274, 0.00030172945116646588, 0.00028793609817512333, 0.0003074632550124079, 0.00029428952257148921, 0.00046600654604844749, 0.00018030304636340588, 0.00028636536444537342, 0.00015040332800708711, 0.00046769817708991468, 0.00018178593018092215, 0.00028893008129671216, 0.00011652700050035492, 0.00017496522923465818, 0.00023152343055699021, 0.00033215124858543277, 0.00026266908389516175, 0.00031835981644690037, 0.00030061602592468262, 0.00026994291692972183, 0.00034329594927839935, 0.00029858239577151835, 0.00019360490841791034, 0.00014179521531332284, 0.00019745351164601743, 0.00046165130333974957, 0.00033973273821175098, 0.00034093795693479478, 0.00038343932828865945, 0.00044064788380637765, 0.00043609098065644503, 0.0001414026046404615, 0.00014419016952160746, 0.0001612839987501502, 0.0001093882747227326, 0.00042854808270931244, 0.00032197622931562364, 0.00025891789118759334, 7.9231162089854479e-05, 0.00017953358474187553, 0.00022342782176565379, 0.00021069074864499271, 0.0004840955079998821, 0.00034711454645730555, 0.00027846349985338748, 0.00023672136012464762, 0.0001353681436739862, } };
const TfArray<96, int> quant12_zero = { 96, { 0,0,0,0,0,0,0,0,0,0,0,0,0,0,0,0,0,0,0,0,0,0,0,0,0,0,0,0,0,0,0,0,0,0,0,0,0,0,0,0,0,0,0,0,0,0,0,0,0,0,0,0,0,0,0,0,0,0,0,0,0,0,0,0,0,0,0,0,0,0,0,0,0,0,0,0,0,0,0,0,0,0,0,0,0,0,0,0,0,0,0,0,0,0,0,0 } };
const TfLiteAffineQuantization quant12 = { (TfLiteFloatArray*)&quant12_scale, (TfLiteIntArray*)&quant12_zero, 0 };
const ALIGN(16) int8_t tensor_data13[96*1*1*16] = { 
  /* [0][0][][] */ 8,50,-49,75,27,8,13,-11,37,30,-40,100,-13,-109,34,-127, 
  /* [1][0][][] */ 21,51,-19,-30,21,-39,127,-105,8,88,-11,-27,-4,-47,40,19, 
  /* [2][0][][] */ -127,32,-53,-24,6,-35,63,50,-32,50,95,-8,-71,15,26,-41, 
  /* [3][0][][] */ -70,46,35,65,-56,48,81,119,4,77,-127,16,44,-77,-93,-57, 
  /* [4][0][][] */ 9,-6,54,87,-31,86,-7,63,4,-17,2,3,34,-7,-127,-23, 
  /* [5][0][][] */ -5,-27,52,-30,2,-26,-5,27,-66,100,-37,-127,-16,16,-38,-21, 
  /* [6][0][][] */ 11,10,38,-11,38,60,-63,-68,-10,-10,42,-15,127,-24,-18,-36, 
  /* [7][0][][] */ 30,8,127,-20,-27,-45,20,-16,-88,40,-91,-63,-4,-5,24,-14, 
  /* [8][0][][] */ 31,54,87,72,-82,113,25,53,63,11,-1,-116,-50,6,-127,-105, 
  /* [9][0][][] */ 35,-119,48,40,16,-29,-2,15,127,-8,66,3,-24,5,-120,-25, 
  /* [10][0][][] */ -39,-78,0,-25,-110,9,-5,55,95,127,56,-32,-41,59,90,-13, 
  /* [11][0][][] */ 48,-8,17,-80,13,-21,-127,-98,-34,39,-14,-9,37,-10,33,-77, 
  /* [12][0][][] */ -3,22,13,-40,-43,-24,-98,-15,-53,-91,-35,16,29,127,77,36, 
  /* [13][0][][] */ -45,-103,-73,36,-14,-86,8,-21,63,20,-13,-5,26,21,127,30, 
  /* [14][0][][] */ 1,-76,54,29,21,29,18,127,12,65,10,-42,24,43,-65,115, 
  /* [15][0][][] */ 0,-22,-8,48,5,-14,83,3,6,-127,16,-32,-1,-22,4,-23, 
  /* [16][0][][] */ 30,-83,-66,36,12,-7,48,-83,127,78,97,9,-1,94,78,124, 
  /* [17][0][][] */ -65,-50,47,127,125,53,20,-17,123,-42,-9,-37,35,33,-117,25, 
  /* [18][0][][] */ -4,17,-6,34,-72,7,-5,23,-33,0,-13,-17,10,-127,81,-5, 
  /* [19][0][][] */ 82,-46,39,-55,112,43,-93,95,106,-64,76,65,-19,66,60,127, 
  /* [20][0][][] */ 38,-14,80,-71,-10,21,-42,42,-18,-72,98,-19,22,11,-53,127, 
  /* [21][0][][] */ -58,-27,3,-27,24,15,-79,-42,-18,52,7,15,-127,-7,20,-21, 
  /* [22][0][][] */ 24,-30,16,-33,15,-62,7,-16,-127,30,-22,-51,-15,-15,79,-19, 
  /* [23][0][][] */ 12,11,20,-7,10,12,-12,1,-5,-12,42,-12,127,-6,-1,-41, 
  /* [24][0][][] */ -22,5,2,-67,-24,-14,55,4,-58,3,-4,-127,0,-111,37,3, 
  /* [25][0][][] */ -88,16,-50,-35,23,-40,-56,-127,-34,41,-52,-45,-42,-60,25,-37, 
  /* [26][0][][] */ 12,-38,14,-106,127,-39,8,-17,120,-74,47,-20,-15,103,-5,59, 
  /* [27][0][][] */ 100,-34,28,-32,-34,-54,-9,-16,-32,14,-127,14,17,-21,-3,39, 
  /* [28][0][][] */ -102,-18,-127,-69,53,1,64,-49,8,48,-38,20,40,-13,-41,48, 
  /* [29][0][][] */ -56,-21,-4,127,-6,28,8,-37,6,0,-74,51,16,-72,29,-27, 
  /* [30][0][][] */ 69,-6,127,-24,48,54,-34,68,-26,-81,49,-24,-25,32,-52,69, 
  /* [31][0][][] */ 21,-102,-3,-45,4,-74,22,-42,-23,50,112,25,-25,89,62,127, 
  /* [32][0][][] */ -18,73,-28,33,-127,31,-75,-43,-56,-35,-4,44,16,45,31,53, 
  /* [33][0][][] */ 31,-9,21,127,20,-15,23,-51,-103,58,68,-19,3,6,10,99, 
  /* [34][0][][] */ 33,-7,11,-11,64,-39,-127,-19,-45,82,-34,6,-40,5,9,13, 
  /* [35][0][][] */ 78,18,-7,13,31,-127,-10,-4,-16,10,-73,3,57,28,-16,4, 
  /* [36][0][][] */ 20,-6,-127,8,45,15,-33,32,-27,-20,9,-10,7,18,-15,18, 
  /* [37][0][][] */ 11,8,127,-11,-58,20,21,-59,-9,20,-53,20,22,-9,21,-5, 
  /* [38][0][][] */ -127,21,1,12,16,62,5,-3,8,-19,87,-31,-11,14,-8,-8, 
  /* [39][0][][] */ -21,1,23,34,32,-5,-127,44,20,27,-4,-38,0,-23,5,-6, 
  /* [40][0][][] */ 4,78,-17,127,-18,71,64,31,-79,-30,-51,67,28,44,-54,-7, 
  /* [41][0][][] */ 16,11,-38,-15,-42,-11,127,94,-42,83,-24,2,9,64,34,-10, 
  /* [42][0][][] */ 12,-32,-30,-33,-1,7,-51,54,40,-113,127,70,-36,66,-63,26, 
  /* [43][0][][] */ -61,6,30,-36,32,31,-77,-82,-23,44,8,-8,-127,-8,33,-13, 
  /* [44][0][][] */ 27,-3,-17,-4,-8,-27,11,-45,127,13,4,38,8,76,-3,43, 
  /* [45][0][][] */ -55,-90,6,-100,33,-16,4,34,7,-55,-24,-34,24,112,-48,127, 
  /* [46][0][][] */ -39,11,-32,100,-84,-19,7,-77,-127,54,-53,-19,-8,35,0,-41, 
  /* [47][0][][] */ -24,-3,-101,127,0,56,-7,-22,21,44,57,70,-22,-8,35,-16, 
  /* [48][0][][] */ -29,-3,34,-127,28,-22,-29,-14,-51,9,15,-13,-9,41,89,32, 
  /* [49][0][][] */ -26,2,25,114,2,20,-54,-19,38,-48,-68,-24,-49,-43,-75,-127, 
  /* [50][0][][] */ 14,79,31,-127,51,17,-17,57,125,-20,-36,-1,-2,-40,20,-31, 
  /* [51][0][][] */ 2,-33,10,-17,40,-22,-45,-127,11,-81,-8,-5,-13,0,-16,-7, 
  /* [52][0][][] */ 34,25,7,41,51,-5,-83,113,-92,127,-48,-27,75,118,6,-58, 
  /* [53][0][][] */ -15,83,-7,-91,-24,-4,20,-10,-47,-64,-36,52,13,-127,-93,-18, 
  /* [54][0][][] */ -2,5,10,35,50,-30,6,-37,4,32,-6,-17,-13,127,-38,-11, 
  /* [55][0][][] */ -124,127,93,-27,42,5,-25,-6,-51,28,108,-17,-9,-27,120,-7, 
  /* [56][0][][] */ 64,-14,13,-106,101,-2,-11,34,46,-49,48,127,-27,9,85,57, 
  /* [57][0][][] */ -17,3,20,73,-25,17,44,127,-8,7,13,-26,2,63,6,28, 
  /* [58][0][][] */ 30,127,5,-119,10,46,-13,24,108,-7,-8,80,5,-91,39,58, 
  /* [59][0][][] */ 34,49,46,-121,-47,6,25,-13,10,19,19,-76,-8,-127,-65,22, 
  /* [60][0][][] */ 52,-7,118,-35,-32,127,27,-35,-6,37,-52,-3,26,8,37,-9, 
  /* [61][0][][] */ -22,32,-57,-46,-46,-7,98,127,-5,56,3,12,-4,66,27,-23, 
  /* [62][0][][] */ -16,0,-27,-21,-104,16,-57,-1,-23,-21,-5,-66,18,-127,109,20, 
  /* [63][0][][] */ 22,-33,12,-78,51,2,-124,-127,-55,96,-24,18,55,2,20,-52, 
  /* [64][0][][] */ -19,0,39,57,75,-7,-24,-127,19,-107,-2,-35,-10,-19,-13,-4, 
  /* [65][0][][] */ -127,26,26,-55,16,74,58,-57,-71,45,53,-8,-5,31,-13,-39, 
  /* [66][0][][] */ 45,4,89,18,-65,17,-11,43,-64,-1,57,-97,-11,59,-127,8, 
  /* [67][0][][] */ 47,-50,-29,61,70,-31,-97,-121,35,-127,-75,-27,-85,9,-70,18, 
  /* [68][0][][] */ 29,-42,-84,69,-45,-107,14,-52,-41,-12,64,-67,-34,68,127,-16, 
  /* [69][0][][] */ -55,39,-68,23,-7,-127,14,69,8,-19,45,-16,82,17,-24,8, 
  /* [70][0][][] */ 19,9,-39,-35,-41,2,127,85,-31,47,-14,11,6,43,13,2, 
  /* [71][0][][] */ 10,0,-19,-39,19,11,11,47,-31,-35,-4,3,10,-127,69,0, 
  /* [72][0][][] */ 13,34,-13,21,27,-39,-58,-127,16,34,-44,16,58,36,48,59, 
  /* [73][0][][] */ -41,-127,-37,-60,-83,-27,44,-36,-20,14,-25,-26,31,-54,72,-10, 
  /* [74][0][][] */ -34,33,62,92,-9,11,-127,89,22,-39,-42,-45,-3,-14,-8,1, 
  /* [75][0][][] */ -51,35,-43,20,-21,83,91,127,-7,50,8,-29,-111,78,13,13, 
  /* [76][0][][] */ 15,-20,-28,-21,28,-62,-112,-127,-30,-13,-2,-3,42,-8,62,-29, 
  /* [77][0][][] */ -52,13,-46,-27,-41,-8,-17,-63,127,-4,-59,18,-14,36,29,-88, 
  /* [78][0][][] */ -117,-127,-8,88,62,74,-41,32,-14,-88,-106,87,59,-33,101,59, 
  /* [79][0][][] */ 30,-6,24,-67,127,6,49,11,89,23,-8,32,-4,-34,14,-47, 
  /* [80][0][][] */ 2,-42,69,-122,-27,-38,-11,25,-73,-44,-1,-55,1,127,-18,16, 
  /* [81][0][][] */ 15,-7,38,47,19,61,-13,-15,13,-4,3,-26,0,39,-127,27, 
  /* [82][0][][] */ -69,-12,26,-127,-10,-35,-14,-34,-17,-24,-44,-109,-15,-98,-77,27, 
  /* [83][0][][] */ -12,23,-43,-87,-51,5,4,27,-81,-3,7,-88,15,-127,20,61, 
  /* [84][0][][] */ 127,44,17,41,-60,9,-56,16,-7,-18,88,-1,-76,20,85,-66, 
  /* [85][0][][] */ -18,-9,19,-37,44,-12,-42,98,-81,-127,-68,-34,-18,64,74,-123, 
  /* [86][0][][] */ 6,10,2,4,-50,53,-52,59,-76,-62,44,-17,-10,-127,-20,24, 
  /* [87][0][][] */ 127,-26,9,-15,-53,-50,12,2,-5,26,-123,0,35,-4,8,43, 
  /* [88][0][][] */ 51,58,-28,7,-21,-41,-3,-32,97,38,36,9,-33,-30,127,-93, 
  /* [89][0][][] */ 32,59,-103,-14,-50,-38,33,-67,59,65,29,-27,-45,8,-16,-127, 
  /* [90][0][][] */ -6,-35,2,-84,-80,11,127,-66,91,-86,23,-83,58,-36,-42,-26, 
  /* [91][0][][] */ -2,9,-21,-99,-35,2,23,-40,-45,13,64,48,8,-20,38,127, 
  /* [92][0][][] */ 17,1,-8,9,49,-24,-55,-127,35,-56,-2,-23,-36,-8,6,-25, 
  /* [93][0][][] */ 51,10,53,-127,-46,17,-39,60,51,-78,71,-29,-26,103,-13,22, 
  /* [94][0][][] */ -97,53,-94,15,69,-127,-16,24,-6,-54,103,-28,0,1,-25,-8, 
  /* [95][0][][] */ -44,61,19,-127,8,-1,-18,-13,12,-11,-60,-54,3,15,-50,-1, 
};
const TfArray<4, int> tensor_dimension13 = { 4, { 96,1,1,16 } };
const TfArray<96, float> quant13_scale = { 96, { 0.00078273081453517079, 0.00052286515710875392, 0.000494609703309834, 0.00028682890115305781, 0.00048211152898147702, 0.0010174850467592478, 0.0012432483490556479, 0.000687929627019912, 0.00021836772793903947, 0.00085655058501288295, 0.00094356742920354009, 0.00070879096165299416, 0.00045185821363702416, 0.00065814226400107145, 0.00022324698511511087, 0.0014732860727235675, 0.0005249427049420774, 0.00042670121183618903, 0.00054733868455514312, 0.00062775652622804046, 0.00086984765948727727, 0.0021109627559781075, 0.00045937145478092134, 0.001720607397146523, 0.0012597544118762016, 0.00074722571298480034, 0.00070575362769886851, 0.00065611983882263303, 0.00084249104838818312, 0.00034259093808941543, 0.00018258347699884325, 0.00046919440501369536, 0.00068304967135190964, 0.00093141017714515328, 0.00079842796549201012, 0.00090849190019071102, 0.0009111680556088686, 0.00089354952797293663, 0.00057809747522696853, 0.0018181838095188141, 0.00049561116611585021, 0.00053963577374815941, 0.00018062368326354772, 0.00098352995701134205, 0.00037896537105552852, 0.00061891129007562995, 0.00089465040946379304, 0.00047488557174801826, 0.00020750951080117375, 0.00072178780101239681, 0.00074882275657728314, 0.00071459088940173388, 0.00076305272523313761, 0.00073035858804360032, 0.001156520564109087, 0.00044747052015736699, 0.00071069266414269805, 0.00037326631718315184, 0.0011607188498601317, 0.00045115067041479051, 0.00071705773007124662, 0.00028919309261254966, 0.0004342232714407146, 0.00057458766968920827, 0.00082432269118726254, 0.00065188400913029909, 0.00079009553883224726, 0.00074605952249839902, 0.00066993595100939274, 0.00085198122542351484, 0.000741012510843575, 0.00048048264579847455, 0.00035190297057852149, 0.00049003399908542633, 0.0011457118671387434, 0.00084313814295455813, 0.00084612926002591848, 0.00095160782802850008, 0.0010935862082988024, 0.0010822770418599248, 0.0003509286034386605, 0.00035784670035354793, 0.0004002696368843317, 0.00027147642686031759, 0.0010635573416948318, 0.0007990705780684948, 0.00064257439225912094, 0.00019663343846332282, 0.00044556087232194841, 0.00055449624778702855, 0.00052288576262071729, 0.0012014132225885987, 0.00086145807290449739, 0.00069108209572732449, 0.00058748770970851183, 0.0003359524707775563, } };
const TfArray<96, int> quant13_zero = { 96, { 0,0,0,0,0,0,0,0,0,0,0,0,0,0,0,0,0,0,0,0,0,0,0,0,0,0,0,0,0,0,0,0,0,0,0,0,0,0,0,0,0,0,0,0,0,0,0,0,0,0,0,0,0,0,0,0,0,0,0,0,0,0,0,0,0,0,0,0,0,0,0,0,0,0,0,0,0,0,0,0,0,0,0,0,0,0,0,0,0,0,0,0,0,0,0,0 } };
const TfLiteAffineQuantization quant13 = { (TfLiteFloatArray*)&quant13_scale, (TfLiteIntArray*)&quant13_zero, 0 };
const ALIGN(16) int32_t tensor_data14[16] = { -5496, 134, -6991, 30164, 22461, 7247, -5584, -2329, 25745, 3174, 29463, 20057, -10907, 11318, 35000, -32598, };
const TfArray<1, int> tensor_dimension14 = { 1, { 16 } };
const TfArray<16, float> quant14_scale = { 16, { 0.00052366632735356688, 0.00024792121257632971, 0.00024734376347623765, 0.00023287603107746691, 0.00041961492388509214, 0.00038540334207937121, 0.00029941037064418197, 0.00038298839353956282, 0.00021188748360145837, 0.00028168153949081898, 0.00035487537388689816, 0.00073875748785212636, 0.00044089232687838376, 0.00038933119503781199, 0.00052576698362827301, 0.00030775170307606459, } };
const TfArray<16, int> quant14_zero = { 16, { 0,0,0,0,0,0,0,0,0,0,0,0,0,0,0,0 } };
const TfLiteAffineQuantization quant14 = { (TfLiteFloatArray*)&quant14_scale, (TfLiteIntArray*)&quant14_zero, 0 };
const ALIGN(16) int8_t tensor_data15[16*1*1*96] = { 
  /* [0][0][][] */ 3,18,-7,20,38,73,-27,-27,41,5,14,13,-5,19,20,69,2,-11,-1,-6,94,-48,6,-20,-22,-36,-48,-84,-3,-9,50,51,126,-6,2,7,9,-16,-27,15,-33,13,18,-37,6,-25,-8,29,-12,24,10,-16,-37,-15,0,6,40,22,-13,-23,-52,27,-4,-6,21,5,54,4,17,-1,14,-19,-66,-11,0,-6,-7,-82,2,-22,40,-15,-60,-47,31,-16,10,29,-1,-2,18,-35,26,21,-12,127, 
  /* [1][0][][] */ 72,-98,32,78,-9,-66,-22,-46,-25,-80,-7,14,4,-58,-29,-56,-86,-14,18,22,-28,-111,-37,19,127,-60,-71,-2,-25,85,-21,41,9,11,-36,15,-29,-5,48,-17,3,-62,73,-31,-51,9,57,-16,35,17,6,-57,66,-75,42,-6,7,38,-19,-106,32,-67,20,-45,3,-90,30,31,30,53,-46,-18,-93,35,-18,60,39,79,20,-30,38,-1,-72,28,-74,60,-1,56,-34,6,23,5,7,-46,38,-4, 
  /* [2][0][][] */ 31,21,5,-26,7,-4,-19,45,63,-21,15,69,-5,11,43,4,-14,-9,7,-10,-19,-65,8,-57,-4,-12,-26,29,-6,29,124,-60,17,-76,-23,58,19,127,-42,-31,1,-19,-8,39,-51,-49,-63,11,18,31,-27,-28,23,-10,-3,-37,-27,-2,-3,24,6,7,74,88,2,-73,20,-69,-7,-10,-23,1,-18,19,-24,20,7,61,10,26,13,88,32,-6,-16,1,5,3,20,10,1,-55,-41,-3,-7,57, 
  /* [3][0][][] */ -15,-11,-33,38,24,-18,9,-14,-17,16,3,16,14,-12,48,-6,45,-32,14,4,-22,-9,-11,10,-20,13,8,11,25,-55,64,-11,18,-5,-15,42,-3,-4,-13,3,10,-67,24,-20,-8,5,-3,0,-127,41,-19,24,-117,-55,-28,-51,34,12,-11,53,1,24,11,14,-11,-84,-36,30,59,12,10,34,-45,14,-1,-40,-43,-47,32,-28,11,-19,25,69,36,55,34,13,27,6,-9,11,-32,2,-16,-22, 
  /* [4][0][][] */ 0,-26,14,-64,0,4,-34,9,-21,-36,-31,5,18,78,17,8,57,-16,9,4,-10,36,53,12,-14,-5,14,31,12,-8,-5,2,-29,17,6,17,39,-21,-6,-13,8,5,-95,-29,35,-4,-7,-16,0,84,-9,-19,-28,-13,4,-19,10,-21,27,43,18,8,7,-6,51,-106,23,-14,-38,9,9,13,-16,10,-3,23,-16,69,56,5,15,6,127,-42,38,-22,-8,-4,67,14,-5,26,-29,35,-5,-32, 
  /* [5][0][][] */ -6,4,-9,-5,-7,-6,2,100,45,-17,-14,-25,-9,31,38,28,-7,-8,-1,-36,-50,-7,-6,-41,8,6,23,80,68,5,60,52,-47,25,3,-13,-48,-51,-35,-22,-39,-10,-13,-7,58,14,0,1,4,14,-15,10,-29,-21,9,-16,-12,-14,-7,31,-37,20,-18,-35,14,12,-18,12,-1,17,2,5,25,11,11,2,-1,31,19,127,-4,-45,22,28,7,-11,18,-26,-2,-11,15,-110,-30,-17,-10,-108, 
  /* [6][0][][] */ -24,-7,-11,-54,-12,-13,-6,9,-5,22,-17,3,36,-61,11,-8,-2,-68,36,15,-1,15,-20,28,68,-13,-7,-2,25,-12,9,-3,-16,9,-16,-1,19,3,12,30,-5,-27,-49,-28,-3,-19,33,-127,19,38,22,8,6,5,-9,-37,40,-5,1,10,26,11,9,13,41,63,23,-16,-22,-15,31,-14,13,-2,47,-15,-21,29,0,-1,-9,-3,45,-38,-1,40,19,-19,29,10,-37,-4,-14,13,-7,18, 
  /* [7][0][][] */ 13,11,34,-25,-5,-3,-8,-23,-3,-12,-11,-19,-9,-92,20,5,-7,-29,-19,-9,13,-19,-34,-3,-20,-8,3,-24,5,8,7,-5,-13,3,-10,-25,3,-11,-22,24,9,-15,-16,32,-6,9,-16,74,-5,19,-19,-20,-22,-1,2,-49,38,-3,-4,-5,-9,5,-14,-9,-26,37,11,-28,-15,0,-4,34,-7,-3,-14,13,45,4,0,-16,9,-37,36,2,-31,127,-7,-1,-36,-21,1,23,-28,2,-5,1, 
  /* [8][0][][] */ -64,39,-68,0,45,-3,-19,29,9,70,-49,5,16,30,76,-17,-10,28,-75,16,12,32,-37,11,-46,-23,18,22,57,-85,-9,4,24,2,20,-4,-18,26,-46,40,5,22,-1,-127,-38,-4,34,-37,-58,28,2,64,-113,72,18,-14,16,-20,-26,-14,11,-41,4,17,-30,39,35,-10,-10,-2,20,90,-17,31,37,36,-12,-86,-2,-39,-17,-15,21,5,-64,2,6,-49,-1,31,-30,7,40,-12,-18,-9, 
  /* [9][0][][] */ 29,-55,-35,-30,11,25,-10,24,25,-19,-5,14,-43,-20,7,23,-4,2,46,-21,-29,13,-30,-44,29,7,23,-21,-29,-38,-22,-1,-1,17,26,36,3,45,-43,17,9,17,-20,-89,9,-5,37,-127,-36,5,4,20,-20,2,-12,12,-55,23,-3,17,10,6,17,26,25,109,40,47,12,-13,9,-22,-13,-11,-30,-3,69,1,4,10,-7,5,13,-45,-2,22,-3,-3,-44,32,-37,-3,13,12,6,-13, 
  /* [10][0][][] */ 33,48,-22,29,64,-114,3,-28,2,57,29,3,-14,18,22,-81,24,37,-16,43,-93,-2,-12,-27,-76,-27,-66,58,16,5,10,43,-14,-10,30,-11,80,-24,-21,-7,-17,72,47,-28,-57,-11,-34,8,-18,-16,-34,-5,-18,-10,0,-15,7,38,-23,-12,5,2,-13,29,21,42,53,35,22,-11,53,68,-56,-30,-54,-19,10,34,-21,12,35,-6,-74,-42,69,-60,106,-11,-11,18,24,-18,85,40,-15,-127, 
  /* [11][0][][] */ 41,42,-30,17,-6,21,53,1,-1,-18,-25,-7,2,4,37,9,2,-1,-91,-10,-6,17,2,2,-41,-22,-13,13,7,12,-2,2,-4,11,8,26,14,7,-16,12,2,27,59,-101,34,-36,-5,-2,-127,19,5,-54,22,17,-14,1,-7,-8,4,5,19,-20,-9,12,-43,56,-12,20,15,-8,38,27,-46,-29,19,30,-6,-33,-48,15,11,3,81,43,12,-10,-11,-10,-1,23,-22,4,-4,12,-22,17, 
  /* [12][0][][] */ -31,-4,16,-5,-25,33,16,6,127,2,-11,2,7,12,-43,-37,28,33,10,75,48,30,-13,-16,0,9,13,-17,-109,4,32,-33,5,-8,-3,-14,24,3,43,-9,-49,-18,-7,12,1,31,-1,6,17,6,-44,11,8,-8,6,-9,68,-25,13,20,19,-9,9,-12,0,29,-35,3,2,12,-15,-28,14,14,-63,7,19,-1,14,-54,-18,8,36,44,-21,-17,-31,-29,4,17,-5,46,-16,-24,13,8, 
  /* [13][0][][] */ 28,-10,-25,28,29,4,14,4,-5,6,7,6,13,-9,17,-9,17,-66,-31,13,-7,-12,9,7,5,7,-2,4,-9,-28,-5,18,2,8,10,41,19,4,2,15,2,8,23,36,18,17,-7,-127,18,-5,9,7,-19,1,19,4,-16,19,25,16,9,18,-4,3,-9,-16,-20,-52,8,12,-3,-26,-16,31,-6,14,-25,7,14,-2,30,-7,-11,15,13,22,7,18,1,3,22,-4,8,17,-9,-2, 
  /* [14][0][][] */ -114,-54,23,54,26,-33,-37,2,-15,-1,-19,9,52,11,-127,-9,74,-18,-11,27,-11,-11,41,11,-104,1,26,-29,-40,-67,-40,-6,-6,4,20,-58,19,25,4,13,23,30,-7,-32,20,122,80,56,-110,51,4,27,-53,4,36,-2,2,3,56,46,22,38,15,41,-3,-1,-42,41,4,69,-63,-98,-70,-7,-15,44,-1,34,77,-12,64,12,29,25,32,18,47,28,22,39,68,-17,0,14,22,-22, 
  /* [15][0][][] */ 96,-23,45,4,-11,66,30,-12,-8,50,10,7,-91,-4,-23,43,6,47,54,-20,16,31,-86,56,28,11,38,-5,19,41,-57,-83,18,-52,32,2,36,-29,-54,-101,-4,25,7,33,4,56,-6,-25,102,-53,-51,23,39,-118,59,-91,-1,-69,21,27,-127,1,15,19,80,-14,-59,41,-35,69,-28,9,51,19,16,-9,18,-49,60,-9,-13,7,37,72,-16,1,2,-53,0,-11,66,-4,-64,62,24,-5, 
};
const TfArray<4, int> tensor_dimension15 = { 4, { 16,1,1,96 } };
const TfArray<16, float> quant15_scale = { 16, { 0.022255817428231239, 0.010536651127040386, 0.010512109845876694, 0.0098972311243414879, 0.017833633348345757, 0.016379641368985176, 0.012724940665066242, 0.016277005895972252, 0.0090052178129553795, 0.011971465311944485, 0.015082202851772308, 0.031397193670272827, 0.018737923353910446, 0.016546575352549553, 0.022345095872879028, 0.013079447671771049, } };
const TfArray<16, int> quant15_zero = { 16, { 0,0,0,0,0,0,0,0,0,0,0,0,0,0,0,0 } };
const TfLiteAffineQuantization quant15 = { (TfLiteFloatArray*)&quant15_scale, (TfLiteIntArray*)&quant15_zero, 0 };
const ALIGN(16) int32_t tensor_data16[96] = { 9185, -8757, 3096, 44831, -1947, -4565, -10101, 2483, -2646, 1112, 3505, -367, 672, -6438, 6662, -6235, -749, 17044, 24547, 2125, 5618, -1839, 352, 93, 15416, -234, -1671, -3290, -5355, -7973, 6544, -9249, -412, -1859, 516, 12968, 1664, -3641, 19364, 649, -295, 2490, -9621, -7753, -7380, 67873, 687, 17122, 31137, -12072, 106, 5721, 7495, -124, -6306, 2180, -9611, 1874, 2117, -6336, -1540, -250, -11857, 16, 1732, 15497, 28306, 18889, -11733, 283, -5863, -40, 54826, 11701, 287, 537, 18553, 34373, -1481, -7828, -1558, -5327, 1620, -3310, 239, -416, 1859, -290, 2093, -3596, 134, -262, -708, -531, 44, 53257, };
const TfArray<1, int> tensor_dimension16 = { 1, { 96 } };
const TfArray<96, float> quant16_scale = { 96, { 0.00022930487466510385, 0.00013493049482349306, 0.00019068531400989741, 4.6920416934881359e-05, 0.00015368717140518129, 0.00017318586469627917, 0.00032825188827700913, 7.3665862146299332e-05, 0.00012335313658695668, 0.00043472176184877753, 0.00017788029799703509, 0.00037741832784377038, 8.7933825852815062e-05, 0.00040744268335402012, 0.00014758392353542149, 0.00011701163020916283, 0.0001180413892143406, 0.00029906388954259455, 6.2607046857010573e-05, 0.00026884814724326134, 3.9107428165152669e-05, 0.00018253698362968862, 0.00012680004874709994, 0.00035972549812868237, 0.00022716079547535628, 0.00025096492026932538, 0.00012534622510429472, 0.00017187632329296321, 0.00014473372721113265, 9.0994471975136548e-05, 0.00013114558532834053, 0.00016678779502399266, 0.00013080581265967339, 0.00011042869300581515, 0.00022574639297090471, 0.00018009181076195091, 0.00035984782152809203, 0.00011076965893153101, 6.0491522162919864e-05, 0.00014102486602496356, 0.00021652279247064143, 0.00036761039518751204, 0.00034575638710521162, 0.00017036301142070442, 0.00018984499911312014, 4.9814490921562538e-05, 0.00019558751955628395, 0.00019350979709997773, 8.4965067799203098e-05, 0.00022083152725826949, 0.00018340793030802161, 0.00025129091227427125, 0.00022503828222397715, 0.00030923800659365952, 0.0002711211855057627, 0.00037446158239617944, 0.00040249820449389517, 0.0002159483265131712, 0.00013232023047748953, 8.3886727225035429e-05, 0.0002716960443649441, 0.00014440146333072335, 0.00032005156390368938, 0.00015180415357463062, 0.00021212114370428026, 0.00018426142923999578, 8.0282778071705252e-05, 9.0677225671242923e-05, 0.00034065471845678985, 0.00033125394838862121, 0.00024393100466113538, 0.00010035753803094849, 0.00010399209713796154, 0.00020094661158509552, 0.00014623801689594984, 0.00027925267932005227, 0.00053550885058939457, 4.8357600462622941e-05, 0.0002118122938554734, 0.00022031465778127313, 0.00016477057943120599, 0.00037054350832477212, 0.00010907933756243438, 0.00019499901100061834, 0.00012277021596673876, 9.6038675110321492e-05, 0.00014156833640299737, 0.00015464269381482154, 0.00019226585573051125, 9.8566153610590845e-05, 0.0002415596682112664, 0.00012324639828875661, 0.00013431963452603668, 0.00043025522609241307, 0.028060302138328552, 7.1407674113288522e-05, } };
const TfArray<96, int> quant16_zero = { 96, { 0,0,0,0,0,0,0,0,0,0,0,0,0,0,0,0,0,0,0,0,0,0,0,0,0,0,0,0,0,0,0,0,0,0,0,0,0,0,0,0,0,0,0,0,0,0,0,0,0,0,0,0,0,0,0,0,0,0,0,0,0,0,0,0,0,0,0,0,0,0,0,0,0,0,0,0,0,0,0,0,0,0,0,0,0,0,0,0,0,0,0,0,0,0,0,0 } };
const TfLiteAffineQuantization quant16 = { (TfLiteFloatArray*)&quant16_scale, (TfLiteIntArray*)&quant16_zero, 0 };
const ALIGN(16) int8_t tensor_data17[1*3*3*96] = { 
  /* [0][0][][] */ -18,7,-20,104,-17,23,-63,-54,18,-6,99,-10,4,-8,-3,54,5,16,-32,3,72,2,32,-34,2,16,44,49,22,14,24,49,-7,27,10,-14,5,49,-58,-26,21,9,27,19,-86,-58,25,-5,-10,-19,-8,-6,48,5,-8,1,-4,-36,28,-31,27,-2,127,26,-14,-11,12,-50,66,35,1,-7,80,-33,69,4,17,-127,30,65,1,16,127,-13,37,28,-29,-19,34,-6,-14,80,1,20,-2,12, -49,13,-8,10,52,-8,-11,-127,39,14,-127,-5,-16,-12,5,93,19,-30,-12,-15,77,-95,127,25,-61,-33,-104,-17,29,38,-48,17,119,12,-14,0,-24,127,-67,-127,9,-19,-30,15,47,-127,127,-44,-75,50,49,7,39,-64,32,56,36,42,-102,84,127,35,4,-21,42,-38,-94,1,37,-31,-20,46,-48,-49,105,-4,-29,-59,-32,64,-66,63,-15,9,-11,47,54,-40,-29,55,-13,72,-127,-31,23,-127, 0,-3,-23,-75,7,17,36,22,-3,-2,4,61,0,-12,-10,7,-12,17,-14,17,6,24,23,-33,1,-32,11,12,-6,6,46,-79,44,18,9,-23,12,4,-32,-20,8,3,-17,10,22,-34,20,1,6,-6,6,-5,4,6,-5,8,-7,44,6,-3,11,-18,3,-17,-27,-18,32,-48,-108,-7,41,-17,-127,-23,-13,17,10,-11,6,11,-13,24,-35,-2,-40,20,25,36,-25,-16,24,-12,19,6,-2,-45, 
  /* [0][1][][] */ -41,59,-17,37,-86,-16,-11,-44,26,94,-47,-23,-31,-25,-5,62,127,-24,-89,-13,59,-127,-29,15,-35,-49,-127,-5,38,36,-50,28,-127,-75,-57,3,65,-3,-51,47,-19,86,0,-2,34,-52,-13,-31,127,43,-3,21,44,9,-36,-17,30,9,-126,127,-37,-91,21,127,-59,-36,-84,127,-37,127,-18,57,-35,-55,37,9,-35,-69,127,50,127,35,4,0,127,29,-95,47,-39,-35,-102,39,98,103,29,-59, 127,127,127,127,-47,-127,127,24,127,-127,15,-127,-107,127,127,127,-15,-127,-62,-127,127,21,-69,127,127,127,-55,-127,127,127,-127,127,-10,-127,-125,127,-127,-44,97,111,-127,-127,127,127,127,-117,-108,127,-13,127,-127,-127,-127,127,127,-127,127,-127,-44,40,-105,-29,-69,-67,127,127,-72,127,127,-107,-127,127,-41,127,-127,-127,-127,122,-74,127,-42,127,79,127,-37,-127,-24,-107,-127,-127,-23,-127,-21,-127,-127,115, -24,66,-38,1,127,70,-22,49,5,23,-14,-6,-27,-30,-12,-8,-104,-22,-127,39,31,75,-13,-117,-33,-42,126,74,10,36,72,9,124,-47,127,-3,55,5,-97,14,36,23,-23,1,-24,-55,-13,-42,81,15,-12,40,-6,-4,-75,-13,24,20,127,-90,2,127,1,-36,-110,-29,-76,100,14,-17,113,26,-17,-56,11,48,-29,-7,-42,-2,-45,8,46,24,-88,35,127,-47,32,-23,127,-10,-112,36,34,19, 
  /* [0][2][][] */ -4,-38,-20,-61,-5,14,39,31,-2,10,-21,50,24,-35,-5,6,42,2,13,22,-10,28,-18,-27,2,-25,10,4,-10,-8,48,-74,-39,66,-29,-25,31,-35,-64,17,9,9,-35,20,12,-78,-13,0,-9,4,16,-7,7,1,-22,6,-2,44,-49,34,-6,-13,5,17,-5,-10,23,-52,-57,11,-19,-11,-119,-31,1,18,15,-11,56,19,23,22,-40,16,12,26,-20,9,4,25,23,-5,20,40,-7,-29, -28,-9,-26,23,-46,74,-25,66,6,-5,53,-12,127,-7,-17,-17,0,-40,-55,24,-22,76,-45,-113,-47,-49,101,70,13,46,53,-2,-122,63,-16,-23,-29,-27,-127,-3,44,-14,-16,38,-27,-43,-19,-47,-60,25,67,25,-11,-80,30,53,17,26,75,-55,20,-58,-8,0,20,-26,-127,-54,-12,-27,-60,23,37,-45,-29,-7,-44,24,-56,2,50,34,18,11,5,62,-92,127,14,127,-30,-18,115,-22,46,83, -9,-33,-25,29,11,65,-44,13,3,-6,0,12,12,-50,-9,-13,-44,-6,17,21,-24,5,-21,3,-4,19,-2,52,-1,-5,33,29,18,43,19,-23,-7,-26,-32,9,11,-12,21,10,-75,-34,-14,5,-1,-17,-1,-4,-8,9,-16,-4,-1,-50,14,-30,-22,49,9,-29,-10,-2,36,-53,46,7,54,-22,31,-55,-18,22,11,10,-5,24,-28,32,87,-14,-18,54,38,-9,108,12,2,-19,10,-22,-6,-49, 
};
const TfArray<4, int> tensor_dimension17 = { 4, { 1,3,3,96 } };
const TfArray<96, float> quant17_scale = { 96, { 0.0097454572096467018, 0.005734546110033989, 0.0081041259691119194, 0.0019941176287829876, 0.0065317046828567982, 0.0073603992350399494, 0.013950705528259277, 0.0031307991594076157, 0.0052425079047679901, 0.018475674092769623, 0.0075599122792482376, 0.016040278598666191, 0.0037371874786913395, 0.017316313460469246, 0.0062723164446651936, 0.004972994327545166, 0.0050167590379714966, 0.012710214592516422, 0.0026607993058860302, 0.01142604649066925, 0.0016620657406747341, 0.0077578215859830379, 0.005389002151787281, 0.015288333408534527, 0.0096543338149785995, 0.010666009038686752, 0.0053272144868969917, 0.0073047433979809284, 0.006151183508336544, 0.0038672650698572397, 0.0055736871436238289, 0.0070884809829294682, 0.0055592469871044159, 0.0046932194381952286, 0.0095942215994000435, 0.007653901819139719, 0.01529353205114603, 0.0047077103517949581, 0.0025708896573632956, 0.005993556696921587, 0.0092022186145186424, 0.015623440966010094, 0.014694646000862122, 0.0072404281236231327, 0.0080684125423431396, 0.0021171157713979483, 0.0083124693483114243, 0.0082241659983992577, 0.0036110153887420893, 0.0093853399157524109, 0.0077948370017111301, 0.010679863393306732, 0.0095641268417239189, 0.013142615556716919, 0.01152264978736639, 0.015914617106318474, 0.017106173560023308, 0.0091778039932250977, 0.005623609758913517, 0.0035651859361678362, 0.011547081172466278, 0.0061370618641376495, 0.013602191582322121, 0.0064516765996813774, 0.0090151485055685043, 0.0078311106190085411, 0.0034120180644094944, 0.0038537820801138878, 0.014477824792265892, 0.014078292995691299, 0.010367067530751228, 0.0042651952244341373, 0.0044196639209985733, 0.0085402308031916618, 0.0062151155434548855, 0.01186823844909668, 0.022759124636650085, 0.0020551979541778564, 0.0090020224452018738, 0.0093633728101849556, 0.0070027494803071022, 0.015748098492622375, 0.0046358718536794186, 0.008287457749247551, 0.0052177337929606438, 0.0040816436521708965, 0.0060166539624333382, 0.0065723140724003315, 0.0081712985411286354, 0.0041890614666044712, 0.010266285389661789, 0.0052379718981683254, 0.0057085840962827206, 0.018285846337676048, 1.1925628185272217, 0.0030348261352628469, } };
const TfArray<96, int> quant17_zero = { 96, { 0,0,0,0,0,0,0,0,0,0,0,0,0,0,0,0,0,0,0,0,0,0,0,0,0,0,0,0,0,0,0,0,0,0,0,0,0,0,0,0,0,0,0,0,0,0,0,0,0,0,0,0,0,0,0,0,0,0,0,0,0,0,0,0,0,0,0,0,0,0,0,0,0,0,0,0,0,0,0,0,0,0,0,0,0,0,0,0,0,0,0,0,0,0,0,0 } };
const TfLiteAffineQuantization quant17 = { (TfLiteFloatArray*)&quant17_scale, (TfLiteIntArray*)&quant17_zero, 3 };
const ALIGN(16) int32_t tensor_data18[96] = { 12627, 804, 5834, -527, 4468, 3951, 13742, 5838, -929, 15069, 5687, 1772, 4506, 24194, -360, -1387, 6193, 10122, 1473, -177, -706, 11053, 3661, 3290, 6492, 4255, 3923, 3456, 49, -20, 5319, 7103, 11858, 1750, 7047, -438, 12983, 7218, 726, 4836, 548, 9792, 10667, 3220, 2808, 11959, 10072, 5108, 3567, 2935, 260, -656, 13573, 5758, 5365, 11723, -250, 5923, 2424, 2868, 8940, 6365, 3873, 7260, 4861, 3878, 6134, -686, 10696, 6447, 5764, -979, -908, 2595, 1434, 1704, 16038, 13304, 9581, -2240, 3288, -4477, -1489, 480, 5006, 3575, 4963, 3915, 9004, 3067, 7161, 3156, 10999, 17096, -9102, 10403, };
const TfArray<1, int> tensor_dimension18 = { 1, { 96 } };
const TfArray<96, float> quant18_scale = { 96, { 0.00020447770657483488, 0.00039584047044627368, 0.00023170582426246256, 0.0010996737983077765, 0.00036561294109560549, 0.0002349886781303212, 0.0002288401301484555, 0.00060232443502172828, 0.00048468189197592437, 0.0001211630878970027, 0.00025511361309327185, 0.00047725506010465324, 0.00061081349849700928, 0.00019937966135330498, 0.00031717645470052958, 0.00048792053712531924, 0.00035737382131628692, 0.00023158255498856306, 0.00030827411683276296, 0.00070271495496854186, 0.0003985870280303061, 0.00022624674602411687, 0.0004173946799710393, 0.00024232573923654854, 0.00027001308626495302, 0.00049511686665937304, 0.00035921292146667838, 0.0002566442999523133, 0.000693266571033746, 0.00047081921366043389, 0.00026522562257014215, 0.00026305380742996931, 0.00016508525004610419, 0.00062822364270687103, 0.00023864522518124431, 0.00060343177756294608, 0.00017503822164144367, 0.00036464325967244804, 0.00065957219339907169, 0.00019873365818057209, 0.00091941567370668054, 0.0001934155443450436, 0.00020166061585769057, 0.00022723728034179658, 0.00040478995651938021, 0.00027500724536366761, 0.00028341219876892865, 0.0002837547508534044, 0.0004444373189471662, 0.00029173213988542557, 0.00052964739734306931, 0.00099756161216646433, 0.00019583149696700275, 0.00027369684539735317, 0.00043500409810803831, 0.00015841031563468277, 0.00052901520393788815, 0.00029036274645477533, 0.00032841565553098917, 0.00057080719852820039, 0.00019174056069459766, 0.0002244806382805109, 0.00027517980197444558, 0.00038314092671498656, 0.00021148154337424785, 0.00029220173018984497, 0.00031583569943904877, 0.00047391033149324358, 0.00025226018624380231, 0.00017673874390311539, 0.00034209818113595247, 0.00053348770597949624, 0.00038669462082907557, 0.00049964874051511288, 0.00030359570519067347, 0.00074516417225822806, 0.00014725998335052282, 0.00033774084295146167, 0.0001765807974152267, 0.00054853240726515651, 0.00032814108999446034, 0.0004630683979485184, 0.00025941396597772837, 0.00053313677199184895, 0.00031474963179789484, 0.00043435455881990492, 0.00033071220968849957, 0.0003560759942047298, 0.00018783356063067913, 0.00051915511721745133, 0.00019559820066206157, 0.0005339193157851696, 0.00019297776452731341, 0.0001612223859410733, 0.00032189590274356306, 0.00031679551466368139, } };
const TfArray<96, int> quant18_zero = { 96, { 0,0,0,0,0,0,0,0,0,0,0,0,0,0,0,0,0,0,0,0,0,0,0,0,0,0,0,0,0,0,0,0,0,0,0,0,0,0,0,0,0,0,0,0,0,0,0,0,0,0,0,0,0,0,0,0,0,0,0,0,0,0,0,0,0,0,0,0,0,0,0,0,0,0,0,0,0,0,0,0,0,0,0,0,0,0,0,0,0,0,0,0,0,0,0,0 } };
const TfLiteAffineQuantization quant18 = { (TfLiteFloatArray*)&quant18_scale, (TfLiteIntArray*)&quant18_zero, 0 };
const ALIGN(16) int8_t tensor_data19[96*1*1*16] = { 
  /* [0][0][][] */ 30,-32,127,112,66,-20,26,-12,122,-11,-58,-69,48,89,-31,-57, 
  /* [1][0][][] */ 33,64,-7,-5,83,-5,-2,27,50,55,-23,127,2,-26,90,-93, 
  /* [2][0][][] */ 34,-65,3,-13,-44,43,-57,95,-64,-99,20,72,-29,-127,88,-99, 
  /* [3][0][][] */ 127,115,-1,39,-119,-5,-62,-21,4,5,117,-67,-54,102,-51,-33, 
  /* [4][0][][] */ 3,16,17,3,-38,33,-21,43,-59,-29,-11,-15,0,-127,35,1, 
  /* [5][0][][] */ 127,-38,-27,14,-6,-104,-8,20,5,18,-101,-9,11,1,-4,21, 
  /* [6][0][][] */ -127,-79,-7,115,-81,5,-58,49,-125,-99,-88,-45,28,84,12,103, 
  /* [7][0][][] */ -13,19,-79,52,43,-127,-30,44,19,-23,16,-9,5,12,-34,23, 
  /* [8][0][][] */ 37,-46,-7,-6,16,25,-62,-58,-7,6,-77,15,-127,2,-4,18, 
  /* [9][0][][] */ 25,-63,60,116,1,29,-19,-96,127,-112,12,-35,-22,59,-80,21, 
  /* [10][0][][] */ -118,-79,-9,-40,103,51,40,76,111,-74,-67,42,106,-112,-127,69, 
  /* [11][0][][] */ 37,-14,-127,24,37,27,-19,46,-10,-29,-8,-4,1,23,-45,9, 
  /* [12][0][][] */ 99,-58,13,7,-1,-46,-57,-14,50,-4,-127,-13,-40,-12,10,60, 
  /* [13][0][][] */ 63,-70,40,-51,95,-1,-113,-127,31,-64,0,25,17,-2,20,-12, 
  /* [14][0][][] */ -60,38,-93,-37,92,-127,55,-70,43,35,-8,-84,21,87,-26,22, 
  /* [15][0][][] */ 24,-11,61,43,52,-53,-39,-17,7,-58,-72,-10,-127,-54,-19,63, 
  /* [16][0][][] */ -127,56,-7,16,-12,93,42,88,-24,30,109,21,-9,13,6,-51, 
  /* [17][0][][] */ -30,-12,-54,-46,-41,1,42,83,-34,127,-22,8,-8,92,72,9, 
  /* [18][0][][] */ 3,127,-57,12,16,-24,67,-55,36,102,-52,123,7,-30,25,-105, 
  /* [19][0][][] */ 6,-12,32,20,7,41,-5,12,16,7,-43,-8,-127,1,-13,28, 
  /* [20][0][][] */ 99,-77,-9,-99,-32,24,27,-84,-62,41,-127,-40,36,3,66,30, 
  /* [21][0][][] */ 37,-8,127,33,-25,56,13,-3,2,22,-15,-18,-12,69,18,-10, 
  /* [22][0][][] */ 26,10,14,3,-32,-7,34,127,10,6,16,14,2,42,34,32, 
  /* [23][0][][] */ -29,17,-89,7,14,-127,2,29,-7,-30,-14,-14,-62,1,3,45, 
  /* [24][0][][] */ 29,-64,-4,-44,46,10,-15,3,42,36,49,90,-30,93,127,35, 
  /* [25][0][][] */ -127,-86,-51,-3,6,6,8,-37,-51,-1,-76,3,14,30,39,56, 
  /* [26][0][][] */ 19,-6,55,10,-8,16,-45,81,-83,-72,-4,23,5,-127,40,-11, 
  /* [27][0][][] */ -106,43,-47,23,32,-26,-4,28,35,-31,127,28,-12,5,-5,-26, 
  /* [28][0][][] */ -19,-4,17,37,2,-4,15,79,28,14,-25,-3,-127,-9,-13,33, 
  /* [29][0][][] */ -6,67,51,-33,40,-18,18,-22,-127,29,-32,8,4,38,-93,3, 
  /* [30][0][][] */ -12,-11,-127,-41,25,-67,-12,27,-16,-20,-1,-18,-40,-24,12,14, 
  /* [31][0][][] */ 114,-23,-127,9,30,-1,-39,55,-18,-2,-68,-59,14,-10,-70,28, 
  /* [32][0][][] */ -126,54,36,50,20,101,17,49,29,-3,127,8,-21,23,-11,-29, 
  /* [33][0][][] */ 14,-13,127,-24,-68,28,3,-44,-8,9,-18,26,-11,16,36,20, 
  /* [34][0][][] */ -27,-22,-55,-111,23,5,3,-25,-23,-51,-43,-127,-1,6,53,26, 
  /* [35][0][][] */ -8,-19,32,37,45,-29,23,-37,-127,45,-9,11,-29,106,-35,-32, 
  /* [36][0][][] */ -127,57,-42,-8,-14,48,47,87,4,23,125,-20,1,25,23,-22, 
  /* [37][0][][] */ -30,4,127,-28,-65,-46,20,-30,18,14,1,6,-3,-55,54,9, 
  /* [38][0][][] */ 13,-7,-6,27,36,-57,-66,12,-29,-29,70,-8,127,33,-19,-3, 
  /* [39][0][][] */ -30,-9,-8,-52,-68,-127,83,121,-58,-16,8,-55,3,45,50,79, 
  /* [40][0][][] */ 63,4,-18,-10,-11,78,-12,2,13,2,8,-4,127,7,-16,-16, 
  /* [41][0][][] */ -2,-11,-40,-127,24,-8,-21,-71,-4,-43,11,-43,-11,-12,-13,34, 
  /* [42][0][][] */ 36,58,12,99,-127,1,-120,3,-90,-79,91,-84,-38,125,-45,36, 
  /* [43][0][][] */ 12,127,-15,123,18,39,33,-83,-43,78,-5,22,3,-56,52,28, 
  /* [44][0][][] */ -12,-23,-127,24,47,76,-45,55,-9,-25,34,-21,12,-23,-43,-2, 
  /* [45][0][][] */ 6,28,-11,-127,-28,-11,48,-13,-23,23,-43,13,3,-104,30,-40, 
  /* [46][0][][] */ 12,42,56,-15,20,7,-56,59,31,-46,-34,19,23,127,56,-6, 
  /* [47][0][][] */ 16,-27,22,-49,-36,17,-73,66,-5,-43,18,32,7,-127,45,13, 
  /* [48][0][][] */ 9,-9,8,-127,-17,-16,3,11,13,-20,12,-21,10,46,1,69, 
  /* [49][0][][] */ 27,-34,0,108,70,16,12,65,-53,27,28,26,-11,46,127,-10, 
  /* [50][0][][] */ -20,-1,68,-18,7,127,-17,-77,30,-18,114,29,94,-23,-13,-53, 
  /* [51][0][][] */ 34,46,6,16,17,2,-40,17,46,7,0,127,15,32,32,-53, 
  /* [52][0][][] */ -19,78,127,19,15,-41,21,-59,-30,19,10,39,12,92,-127,-6, 
  /* [53][0][][] */ -8,-16,-43,-127,-47,-4,19,-38,-16,33,8,-6,12,-25,37,-1, 
  /* [54][0][][] */ 20,6,-19,-45,26,9,-9,19,56,-25,14,-27,-13,127,14,33, 
  /* [55][0][][] */ -18,-24,-24,-3,20,-41,-14,-127,0,-84,-17,-7,-24,-84,-47,-18, 
  /* [56][0][][] */ 33,57,29,51,-6,-28,12,127,16,-31,-11,-47,88,-14,-45,48, 
  /* [57][0][][] */ 74,-18,127,-17,-62,-53,0,-31,22,5,-97,32,64,-43,36,10, 
  /* [58][0][][] */ 113,107,18,120,-127,-28,10,48,-14,31,86,-19,-68,-59,-29,-81, 
  /* [59][0][][] */ 119,-38,-6,-1,-25,-18,-7,4,-39,12,-127,-9,20,-16,-8,19, 
  /* [60][0][][] */ -127,28,6,-4,13,18,22,30,6,15,89,-6,-28,-3,22,-8, 
  /* [61][0][][] */ -127,73,9,11,14,-19,-75,-70,123,-102,95,-25,64,-17,-93,-54, 
  /* [62][0][][] */ -19,-51,-122,84,83,127,-16,112,25,-66,56,-9,-59,5,-127,-19, 
  /* [63][0][][] */ -55,3,127,-40,-54,-58,32,-31,11,23,2,16,-10,-44,80,12, 
  /* [64][0][][] */ 37,66,10,41,83,9,98,-127,-18,118,-5,-2,-18,-116,-23,31, 
  /* [65][0][][] */ 0,24,9,-17,69,5,-2,-127,-18,-59,-29,-42,-4,-51,50,20, 
  /* [66][0][][] */ -127,9,-21,1,-47,25,8,-43,-67,-34,-76,41,53,14,51,75, 
  /* [67][0][][] */ -1,-40,11,127,13,3,-30,29,49,18,9,-10,-10,-31,-87,-25, 
  /* [68][0][][] */ 17,-7,-5,127,-48,-15,1,-21,-38,21,20,-22,-28,-49,-25,-51, 
  /* [69][0][][] */ 95,79,17,127,48,-26,65,-114,31,100,18,55,5,-27,24,-17, 
  /* [70][0][][] */ -3,-24,-15,-71,108,-61,8,-4,68,-33,57,-30,-2,127,56,51, 
  /* [71][0][][] */ -10,61,-3,62,27,-127,-43,86,29,-101,12,2,6,-53,-36,44, 
  /* [72][0][][] */ -127,-73,-20,47,18,36,-25,18,-49,-29,-74,37,48,18,-4,100, 
  /* [73][0][][] */ -27,-19,-18,67,20,-28,0,-16,76,7,0,-9,23,127,-67,-37, 
  /* [74][0][][] */ 79,-52,16,-28,-56,-31,45,-4,-41,-8,-127,26,-115,2,35,65, 
  /* [75][0][][] */ -24,-18,-12,127,-43,10,-5,-21,-72,14,-22,-32,9,-52,-19,-34, 
  /* [76][0][][] */ 3,-11,-17,48,37,9,-26,-127,22,-112,11,21,-16,-30,30,-41, 
  /* [77][0][][] */ 127,-35,23,58,-40,-8,-39,-2,52,-8,-37,52,33,29,-50,37, 
  /* [78][0][][] */ -5,-4,59,4,-1,-12,-71,35,36,-31,-45,-35,21,127,23,-36, 
  /* [79][0][][] */ -6,25,50,15,40,61,-53,-50,11,-52,67,-18,127,-26,-24,-40, 
  /* [80][0][][] */ -127,-83,-83,115,1,48,43,-24,-77,21,-99,15,37,-89,-22,43, 
  /* [81][0][][] */ 71,-2,-47,45,127,86,-25,-28,6,-86,-16,-71,-20,-1,-105,22, 
  /* [82][0][][] */ 105,127,1,31,-111,-26,-82,-32,-72,-17,102,-52,-56,78,-5,-42, 
  /* [83][0][][] */ 127,53,20,-30,7,-5,-16,28,44,8,83,-36,-56,-36,-25,-86, 
  /* [84][0][][] */ 1,-67,-86,-29,43,0,5,-127,-15,-52,35,17,-28,18,3,-9, 
  /* [85][0][][] */ -20,-2,-32,-46,-11,10,63,76,-9,127,-12,-35,32,54,67,-28, 
  /* [86][0][][] */ 99,-18,9,0,2,-33,-13,-22,6,-2,-127,1,18,16,-13,22, 
  /* [87][0][][] */ -17,34,3,-24,-3,59,-14,34,-16,-17,28,3,1,-127,2,-2, 
  /* [88][0][][] */ -2,-26,-127,-59,58,-35,-32,-114,24,-22,-19,-36,-33,8,46,-11, 
  /* [89][0][][] */ 41,-39,7,-104,36,-18,-27,127,94,-51,27,25,-3,56,17,42, 
  /* [90][0][][] */ -1,15,-35,52,71,-11,117,-90,74,127,-50,40,24,5,-13,-16, 
  /* [91][0][][] */ 51,-10,-44,-2,-1,-127,-8,-2,1,4,-54,1,41,-8,9,31, 
  /* [92][0][][] */ 12,-5,127,48,31,23,2,35,-40,16,-61,30,26,84,-11,4, 
  /* [93][0][][] */ 117,-33,-46,-28,-51,-66,8,32,-27,27,-127,-14,-4,20,-6,59, 
  /* [94][0][][] */ 16,-19,44,77,111,-32,-10,57,7,-15,-2,55,-6,127,-23,-77, 
  /* [95][0][][] */ -113,35,37,35,20,40,17,5,5,2,127,8,-23,30,-24,-36, 
};
const TfArray<4, int> tensor_dimension19 = { 4, { 96,1,1,16 } };
const TfArray<96, float> quant19_scale = { 96, { 0.00052157539175823331, 0.0010096975602209568, 0.00059102801606059074, 0.0028050139080733061, 0.00093259412096813321, 0.00059940182836726308, 0.00058371829800307751, 0.0015363905113190413, 0.0012363115092739463, 0.00030905904714018106, 0.00065073586301878095, 0.001217367360368371, 0.0015580441104248166, 0.00050857145106419921, 0.0008090438786894083, 0.0012445725733414292, 0.00091157807037234306, 0.00059071357827633619, 0.00078633608063682914, 0.0017924634739756584, 0.0010167034342885017, 0.00057710317196324468, 0.0010646773735061288, 0.00061811698833480477, 0.00068874098360538483, 0.0012629287084564567, 0.00091626914218068123, 0.00065464031649753451, 0.0017683628248050809, 0.0012009510537609458, 0.00067652930738404393, 0.0006709895096719265, 0.00042109432979486883, 0.0016024534124881029, 0.00060872884932905436, 0.0015392149798572063, 0.00044648206676356494, 0.00093012070283293724, 0.0016824163030833006, 0.00050692365039139986, 0.0023452169261872768, 0.00049335835501551628, 0.00051438965601846576, 0.00057962979190051556, 0.0010325256735086441, 0.00070147996302694082, 0.00072291900869458914, 0.00072379282210022211, 0.0011336569441482425, 0.0007441412890329957, 0.0013510080752894282, 0.002544549060985446, 0.0004995209164917469, 0.00069813738809898496, 0.0011095949448645115, 0.0004040681233163923, 0.0013493954902514815, 0.00074064824730157852, 0.00083771249046549201, 0.0014559972332790494, 0.00048908585449680686, 0.00057259824825450778, 0.00070192012935876846, 0.00097730394918471575, 0.00053944054525345564, 0.00074533908627927303, 0.00080562388757243752, 0.0012088357470929623, 0.00064345746068283916, 0.00045081970165483654, 0.00087261339649558067, 0.0013608038425445557, 0.00098636862821877003, 0.0012744885170832276, 0.00077440252061933279, 0.0019007415976375341, 0.00037562620127573609, 0.00086149887647479773, 0.00045041681732982397, 0.0013991794548928738, 0.00083701213588938117, 0.0011811804724857211, 0.00066170509671792388, 0.0013599087251350284, 0.00080285355215892196, 0.0011079381220042706, 0.00084357045125216246, 0.00090826756786555052, 0.00047912000445649028, 0.0013242447748780251, 0.00049892580136656761, 0.001361904782243073, 0.00049224169924855232, 0.00041124105337075889, 0.00082108209608122706, 0.00080807215999811888, } };
const TfArray<96, int> quant19_zero = { 96, { 0,0,0,0,0,0,0,0,0,0,0,0,0,0,0,0,0,0,0,0,0,0,0,0,0,0,0,0,0,0,0,0,0,0,0,0,0,0,0,0,0,0,0,0,0,0,0,0,0,0,0,0,0,0,0,0,0,0,0,0,0,0,0,0,0,0,0,0,0,0,0,0,0,0,0,0,0,0,0,0,0,0,0,0,0,0,0,0,0,0,0,0,0,0,0,0 } };
const TfLiteAffineQuantization quant19 = { (TfLiteFloatArray*)&quant19_scale, (TfLiteIntArray*)&quant19_zero, 0 };
const ALIGN(16) int32_t tensor_data20[16] = { -39761, 5075, 2047, -7132, -1809, -7239, -12392, -39913, -857, 23334, 32369, -9190, -1838, -23338, 39179, -46773, };
const TfArray<1, int> tensor_dimension20 = { 1, { 16 } };
const TfArray<16, float> quant20_scale = { 16, { 0.00062500132480636239, 0.00083278829697519541, 0.0012225073296576738, 0.0009751284378580749, 0.0007793098920956254, 0.0010444497456774116, 0.0013836352154612541, 0.00057276530424132943, 0.00073389423778280616, 0.00075762538472190499, 0.00094656203873455524, 0.00061175558948889375, 0.0014217798598110676, 0.0014427922433242202, 0.00046412783558480442, 0.00076532707316800952, } };
const TfArray<16, int> quant20_zero = { 16, { 0,0,0,0,0,0,0,0,0,0,0,0,0,0,0,0 } };
const TfLiteAffineQuantization quant20 = { (TfLiteFloatArray*)&quant20_scale, (TfLiteIntArray*)&quant20_zero, 0 };
const ALIGN(16) int8_t tensor_data21[16*1*1*48] = { 
  /* [0][0][][] */ -15,1,-23,11,22,1,-1,101,-49,17,36,-3,13,-19,-14,13,13,-16,-11,-11,60,-3,23,127,-14,84,-2,-11,29,-10,22,-27,-15,51,22,-48,17,41,20,-14,-99,-19,17,36,36,23,-118,-49, 
  /* [1][0][][] */ -37,-16,17,15,-30,8,4,53,-51,-37,7,-41,-19,-16,2,-2,-29,117,-9,16,10,8,-23,-18,26,-39,16,21,-23,-85,-34,23,-23,-7,33,-3,-6,-43,-1,18,-22,-32,127,14,7,0,24,-15, 
  /* [2][0][][] */ -20,-9,-9,-36,-5,-69,7,-21,1,9,15,24,15,16,-11,7,-4,-20,-24,-11,-6,0,-2,-127,-13,76,-12,3,-2,-23,-1,-5,-10,55,14,-1,23,14,27,-1,-39,1,-16,-5,-2,-11,13,9, 
  /* [3][0][][] */ -8,37,3,-34,-2,1,5,-3,-21,-6,2,36,-127,4,-8,-2,3,7,-21,2,-34,8,4,14,-7,-15,3,23,-10,18,4,19,5,0,16,20,-9,28,42,5,10,5,26,-29,7,-6,7,19, 
  /* [4][0][][] */ 40,-27,11,12,20,31,23,-23,-30,2,-16,-19,-2,6,2,16,26,-10,-79,9,-5,15,13,78,4,-36,8,50,7,-74,17,7,11,-32,35,-127,18,35,-1,17,-14,19,12,-23,-12,-21,16,3, 
  /* [5][0][][] */ 28,3,-22,55,-3,-4,7,27,0,-2,40,6,1,52,2,2,-25,20,27,6,7,7,0,-28,2,-48,6,-18,-6,-12,1,5,66,-127,2,28,-12,-7,17,-1,-91,56,18,-6,-5,-5,-98,-7, 
  /* [6][0][][] */ 28,-1,7,6,-12,-5,2,-14,-4,7,-5,4,-19,6,3,6,2,-14,127,9,4,13,15,-32,4,0,25,-11,-12,-2,-6,4,-2,-8,33,-37,3,-47,70,13,4,-5,-8,6,-9,1,6,-10, 
  /* [7][0][][] */ -49,-20,-14,35,-12,83,1,43,3,24,-1,127,81,1,-5,-6,-9,-19,-6,-20,-28,-8,-17,60,-4,-35,-55,-33,-12,-17,-8,-9,4,-2,-28,8,5,-54,95,-2,18,22,-66,-53,12,-6,10,4, 
  /* [8][0][][] */ -49,-43,2,4,-9,5,-1,35,-5,-65,2,37,45,2,9,4,-11,56,-31,8,-54,24,-9,-6,-2,-1,5,46,-13,116,-12,18,-4,8,-14,-127,-106,65,37,26,26,-1,108,-26,10,27,20,24, 
  /* [9][0][][] */ -25,7,-5,27,20,-31,-7,-1,56,-34,9,53,-59,7,12,3,-5,14,-41,-22,48,11,-12,-23,-1,10,50,-21,11,13,8,-7,-2,18,77,-106,-7,-127,-91,9,-32,29,52,6,9,5,-18,-37, 
  /* [10][0][][] */ -18,-6,-34,-127,49,92,12,-15,0,37,18,11,49,-56,-36,19,34,-44,55,-31,32,-21,37,57,-47,-115,6,-32,45,32,45,-48,-29,-80,24,-5,20,-46,7,-37,-28,-63,-14,10,13,15,20,-40, 
  /* [11][0][][] */ 1,55,-3,58,31,-55,-68,-14,-5,62,-19,-5,-9,45,-7,-76,28,46,5,-5,-55,-103,11,3,14,-52,26,-14,51,-31,22,-84,45,-15,-43,-94,87,31,12,-127,6,62,91,-70,-3,-51,33,31, 
  /* [12][0][][] */ 127,-6,-21,13,4,17,4,104,22,-14,-55,-25,1,14,-11,1,-10,9,-4,-2,5,0,3,23,-1,17,-6,1,-7,10,-6,5,1,-65,-9,13,-16,-14,-29,1,-16,-83,8,-126,-59,-12,82,-3, 
  /* [13][0][][] */ 10,4,0,5,8,-9,2,1,0,6,4,20,-7,1,4,0,6,-1,11,6,11,-9,6,-1,2,-3,18,127,10,-3,5,-5,4,2,-35,21,12,-7,6,-14,-11,-2,3,5,0,-4,-8,-13, 
  /* [14][0][][] */ 59,-22,49,-65,53,26,37,-98,-52,-50,-3,127,-71,1,60,10,48,21,-49,64,26,9,77,-16,20,66,-36,-113,29,-31,60,44,-4,68,-124,-52,-47,38,85,12,-41,13,51,0,0,7,9,-30, 
  /* [15][0][][] */ -4,-49,-78,-35,59,28,70,-53,-8,19,-17,-27,76,21,-95,61,56,46,76,-88,-95,-16,54,-12,-92,48,30,55,59,56,47,-53,28,55,103,127,-15,-113,-12,-32,90,62,117,-50,-1,-35,-19,65, 
};
const TfArray<4, int> tensor_dimension21 = { 4, { 16,1,1,48 } };
const TfArray<16, float> quant21_scale = { 16, { 0.026562554761767387, 0.035393502563238144, 0.051956560462713242, 0.041442956775426865, 0.033120669424533844, 0.044389113783836365, 0.058804493397474289, 0.024342525750398636, 0.031190503388643265, 0.032199077308177948, 0.040228884667158127, 0.025999613106250763, 0.060425642877817154, 0.061318669468164444, 0.019725432619452477, 0.032526399940252304, } };
const TfArray<16, int> quant21_zero = { 16, { 0,0,0,0,0,0,0,0,0,0,0,0,0,0,0,0 } };
const TfLiteAffineQuantization quant21 = { (TfLiteFloatArray*)&quant21_scale, (TfLiteIntArray*)&quant21_zero, 0 };
const ALIGN(16) int32_t tensor_data22[48] = { 2776, 29844, -964, 49253, 3940, 124113, -1289, 54037, 6889, 27203, 24349, 440, 3806, 29639, -913, -4505, -861, 4498, 4123, -2067, 1095, -2565, 287, -20316, -4388, 38772, 134828, 102382, 4271, 226, -2689, -263, 23770, 303, -4071, 6797, 30822, 1262, 69552, 2177, 1092, 73051, 1052, 7894, 44904, 207, 1538, 49748, };
const TfArray<1, int> tensor_dimension22 = { 1, { 48 } };
const TfArray<48, float> quant22_scale = { 48, { 8.1945261626970023e-05, 3.3850436011562124e-05, 0.00018525577615946531, 4.9517831939738244e-05, 0.00016462829080410302, 7.1673261118121445e-05, 0.00013400160241872072, 0.00010227585153188556, 7.0233996666502208e-05, 3.8451798900496215e-05, 5.7079305406659842e-05, 0.00010830591781996191, 4.0250160964205861e-05, 4.3482017645146698e-05, 0.00015635986346751451, 0.00015250733122229576, 0.00016779608267825097, 5.2583625802071765e-05, 0.00010129254224011675, 0.00016270986816380173, 0.00011402239761082456, 0.00017239089356735349, 9.3539543740916997e-05, 0.00013521162327378988, 0.00010938893683487549, 0.0001161808249889873, 3.894144538207911e-05, 6.8790584919042885e-05, 0.00013689724437426776, 0.00014630178338848054, 0.00011916605581063777, 0.0001057333720382303, 5.0150872993981466e-05, 0.0001403518981533125, 4.2259580368408933e-05, 4.8402260290458798e-05, 0.00018463144078850746, 0.00010889671102631837, 7.8568948083557189e-05, 8.5574523836839944e-05, 0.00010999181540682912, 7.7995762694627047e-05, 8.6997562902979553e-05, 7.0605201472062618e-05, 3.6083827581023797e-05, 0.0001821611076593399, 0.00010732201917562634, 3.7472746043931693e-05, } };
const TfArray<48, int> quant22_zero = { 48, { 0,0,0,0,0,0,0,0,0,0,0,0,0,0,0,0,0,0,0,0,0,0,0,0,0,0,0,0,0,0,0,0,0,0,0,0,0,0,0,0,0,0,0,0,0,0,0,0 } };
const TfLiteAffineQuantization quant22 = { (TfLiteFloatArray*)&quant22_scale, (TfLiteIntArray*)&quant22_zero, 0 };
const ALIGN(16) int8_t tensor_data23[1*3*3*48] = { 
  /* [0][0][][] */ 69,-93,97,70,53,-34,106,-62,59,-88,-80,47,51,-42,-71,-90,101,79,49,77,66,-75,-83,50,-32,-40,-64,-64,-67,61,-63,-113,-13,41,68,63,-65,52,-49,-22,50,-75,57,62,-93,10,76,-32, 81,-97,127,85,-77,-68,-57,-84,96,-102,-63,74,80,-109,-95,91,-38,97,82,127,85,-117,52,72,-52,-78,-68,-80,56,79,-29,-127,-85,79,80,83,-83,82,-83,-15,76,-95,82,89,-73,-127,94,-102, 35,-46,70,37,18,-41,-48,-38,42,-31,5,34,28,-78,-55,-2,-52,38,34,69,33,-56,31,26,-28,-45,-43,-22,31,30,88,-89,-84,44,34,34,-29,39,-38,-9,41,-41,33,42,-6,-9,37,-72, 
  /* [0][1][][] */ 92,-113,-42,93,54,-82,127,-89,86,-112,-71,81,84,-111,-13,-127,127,107,73,-38,83,107,-127,73,74,-76,-94,-99,-127,86,-68,-8,-87,71,105,96,-85,78,-81,89,84,-101,87,89,-89,106,94,-90, 127,-127,-66,127,-127,-127,-91,-127,127,-127,-127,127,127,-127,-23,97,-64,127,127,-50,127,127,69,127,127,-127,-127,-127,53,127,-28,16,-127,127,127,127,-127,127,-127,127,127,-127,127,127,-127,-11,127,-127, 63,-77,-34,65,37,-62,-48,-62,56,-43,-60,58,47,-54,-18,10,-62,50,57,-30,56,64,51,64,66,-65,-61,-44,36,55,127,15,-61,69,48,49,-48,60,-60,56,60,-59,54,62,-60,-67,59,-55, 
